repaying -0.06876734 -0.010753676 0.03738037 0.087993614 -0.055265814 -0.14666057 0.18284595 -0.042358343 0.0035368325 0.011207017 0.080258496 0.3202287 0.04559935 -0.061937153 -0.009140208 -0.12814407 -0.19934647 0.054741856 -0.23643686 -0.19353974 0.028559588 -0.28417432 -0.09638614 0.07328567 0.151013 0.037711807 -0.004836222 -0.08556002 0.04443715 0.17361456 0.2971455 -0.00562972 0.15415725 -0.22923733 0.09942631 -0.31747356 0.23181355 -0.04880899 -0.08496946 -0.021617247 0.0023858543 -0.010776356 0.07411256 0.072728485 -0.04069615 0.3238258 -0.13687198 -0.10172173 -0.016788062 0.11293351
times 0.06908528 0.19049002 0.029797675 -0.013025847 -0.12102813 0.16584282 0.0735323 0.16162522 0.3059385 0.299125 0.1651245 -0.1518297 -0.032448165 -0.21877557 -0.16801582 -0.028818399 -0.13237678 7.487165E-5 0.032942716 0.19365314 -0.15140457 0.21488838 -0.036126018 0.05386229 -0.115396276 -0.19736882 -0.017949289 -0.1819483 -0.23265147 0.007017551 -0.090296075 0.02317505 -0.194581 -0.0065474575 0.15511496 -0.041884016 -0.032894254 -0.0820455 0.17563462 -0.1704401 -0.019077526 0.050526205 0.13734359 -0.18032297 -0.21292636 0.06530118 -0.19108006 -0.09916601 -0.052914687 0.10187332
consumption 0.20779306 0.12243519 0.027593797 0.13372841 -0.3735167 -0.08777192 0.07243626 0.03524552 -0.034344535 -0.005139065 -0.10123633 -0.116362184 -0.03626454 0.033903126 -0.09240077 0.043048106 0.007539616 0.025619045 -0.16949226 -0.0899929 0.10738094 -0.36291707 0.040131908 -0.030351792 0.12460111 0.22274931 0.26428148 -0.09068524 -0.102913596 0.09190023 0.003858591 -0.097909376 0.013767159 -0.12958324 0.16563681 0.10483847 0.16915144 0.07801731 -0.05470575 -0.22842476 0.13432735 0.035464212 0.17370723 -0.24463442 -0.18518141 0.21696185 0.13691169 -0.0829824 0.100655876 -0.06886383
injection 0.24269265 0.22555786 -0.12620619 0.16385542 -0.31494203 -0.10401781 0.004703092 0.11497893 0.033537034 -0.09103229 -0.20565556 -0.17240618 0.034638826 -0.06136949 -0.13083449 0.036236204 -0.039958637 -0.07912631 -0.23696059 -0.10106868 -0.13493137 -0.14933902 0.17166264 -0.0038939374 0.04958349 0.1965934 0.15688351 -0.06707133 0.04803032 0.27595875 0.039653134 -0.005334515 -0.052369043 0.084202066 0.017289072 0.03727982 -0.11785326 0.19114845 -0.07552422 -0.018770527 0.16799423 -0.06240007 0.36888373 -0.110032804 0.15115067 0.0039521474 0.11088392 -0.1683705 0.11030489 -0.030003302
analyst 0.06505096 0.22269301 -0.08163671 0.095851354 0.07831652 0.10795052 0.19022852 -0.039196134 0.062219195 0.29593223 -0.018412821 -0.04709636 0.0836792 0.050146706 0.007210196 -0.100264914 -0.1896894 -0.045300994 0.07582576 0.049384933 0.1201633 -0.043115158 0.25871846 0.2134881 -0.044264745 0.15806296 -0.13120826 -0.01546957 -0.021786008 -0.14400963 -0.040464673 -0.1500822 0.12752402 0.076629125 0.08383492 -0.059501197 0.312357 0.34961322 0.23315062 0.17308472 0.015981488 -0.06810021 -0.107229695 -0.13120408 0.07332088 -0.100182965 -0.06489702 0.18714173 -0.22944522 0.13662766
billiton 0.19408743 0.20706359 0.07352976 -5.29828E-4 0.21557179 0.054320995 0.101643145 -0.10673678 0.078920275 0.014217598 0.23181947 0.08064234 0.042085297 0.021524886 -0.06128039 -0.036758874 -0.10334755 -0.1412349 -0.15990153 -0.23475137 0.07406124 -0.28070247 0.040798746 0.006320094 -0.057416182 0.04227564 0.40535665 -0.02483458 0.024730057 0.10634681 -0.18783283 -0.071161926 0.07575416 0.005517913 0.122030035 -0.1010899 -0.003407555 0.23959427 -0.13243389 -0.119022824 -0.0441557 0.13163851 -0.03037147 0.025012527 0.38626933 0.15453629 -0.12827578 -0.11401464 0.07634523 0.011012058
rotterdam -0.110265136 0.15777116 0.1438654 0.1220195 0.070760846 0.10202192 -0.07015446 0.03355927 -0.18953979 0.122724675 -0.31119195 0.057957176 -0.08792929 -0.08540138 -0.053513777 -0.12209372 -0.25849113 0.11059364 0.06466858 0.0023777308 0.06242423 -0.09607549 -0.07106976 -0.17264737 -0.12921932 -0.017526332 -0.14610983 -0.25852832 -0.12047945 -0.063002676 -0.104027346 0.08769777 0.074815 0.03066252 -0.06388458 0.061589733 -0.081998564 -0.14630394 -0.04726154 -0.0043843165 -0.18506008 0.18809305 0.10464691 0.20338288 0.19615623 0.13288757 -0.17083293 0.089901984 0.08622526 0.42536736
interfere 0.02687269 -0.0891259 -0.12340197 0.21567327 -0.1266838 -0.11381741 -0.058399595 0.053545583 -0.07796918 -0.24735518 -0.053642746 -0.02826753 -0.14195357 -0.13575262 0.25467873 0.05762731 -0.10735157 0.15301998 0.006175678 -0.080677785 0.008457829 -0.0707856 0.061374716 0.06985088 0.12330841 0.19088562 -0.0953453 -0.013697311 -0.2902645 0.0385726 0.26059252 -0.20634085 -0.2682274 0.15744354 0.021434715 -0.122694425 0.3011179 0.27638975 0.1871292 -0.027342638 0.18673308 0.13120355 0.026771974 -0.034857657 -0.015672037 0.16044332 0.010215477 -0.07238612 0.056269307 0.02564055
raymond -0.099712014 0.21343306 0.20344205 0.024686133 0.09417371 -0.0535658 -0.09730578 0.032327663 0.20244671 0.21939157 -0.11736242 -0.19104709 -0.011567282 -0.15018395 0.15145124 -0.0010903019 -0.10689378 -0.10553267 0.12570767 0.080708146 0.10603465 0.059603993 0.09545721 0.29352725 0.016811492 0.36111635 -0.028642975 -0.044247847 0.14137553 -0.10891657 0.20907351 -0.18351912 -0.032533493 -0.02756193 -0.026137948 -0.026504619 0.005570531 0.03436945 -0.18867843 0.059605718 -0.28749555 -0.14392479 -0.089008555 0.204353 0.21988162 0.06822361 0.0019319667 -0.096935906 -0.18454455 -0.06711966
glass 0.006102856 0.12178261 -0.09385274 0.09203788 0.08850164 -0.22251976 -0.041518155 0.09049396 -0.26200846 0.28368044 -0.0036987055 -0.14346471 -0.005455691 -0.21867625 -0.2588698 -0.17912926 0.0077780206 -0.14672297 -0.37246186 -0.033586066 -0.03638942 0.19651906 0.029273745 -0.24929124 0.20632488 0.25730577 0.21736987 0.071485646 -0.10343911 -0.06985022 -0.07798099 -0.08454307 -0.1901727 0.014134288 0.003962815 -0.042038642 -0.15152015 0.15661609 -0.014437929 0.016754046 -0.00937074 0.007855574 0.04040201 -0.08596659 -0.031578247 0.0514807 0.09791249 -0.041209307 -0.02430878 -0.13699938
briefing 0.12033933 0.021906199 0.14182591 0.063321814 0.08492524 -0.0324986 0.33381307 0.16042578 0.10218565 0.13632631 0.16278483 -0.06684632 -0.007203398 -0.07629656 0.14503306 -0.010763543 -0.04025918 -0.23233765 -0.11549132 -0.014754203 0.07125897 0.2068468 0.18826832 -0.051912893 -0.21060674 -0.064410366 -0.20175998 -0.12615205 0.08070348 -0.0032963257 0.034378894 -0.07834038 -0.070319906 -0.061483964 0.07734181 0.009958026 0.4085909 0.19104256 0.23778525 0.23317564 0.06426249 0.012702102 0.10249631 0.14191107 -0.030663136 0.050506786 -0.04683875 0.017369652 -0.19230118 -0.21740998
organization 0.03781975 -0.011988111 -0.10205168 0.061455734 -0.09417596 0.20299597 0.37324378 -0.02631823 0.15051854 -0.019845234 0.12581092 -0.072606005 0.30340204 0.18368296 0.08444121 -0.15788636 0.09282569 0.03400848 -0.018304948 -0.20838872 0.035919342 -0.103411995 0.23190036 -0.1443976 -0.092246875 0.15508243 -0.11701147 -0.13188155 -0.05654673 -0.123873696 -0.033048928 0.026823245 -0.08783609 0.0122788 -0.10435882 -0.2608624 0.13063407 0.23449486 0.13985352 -0.044402424 -0.00891339 0.24309894 -0.050567728 0.032556 0.0048459577 0.14736812 -0.19058582 0.2160264 -0.10275317 -0.097654864
smithkline 0.1957072 0.019981757 -0.101201944 -0.07996246 0.20249654 -0.062621176 0.1655297 0.031959094 -0.03800712 0.043939866 0.04642706 0.048609667 -0.08231673 0.08987165 0.020778926 0.08932104 -0.2543592 -0.102757186 -0.1580644 -0.15070227 0.06657222 -0.27575725 0.09952834 -0.075497515 -0.13100006 0.28215525 0.15215918 -0.10193456 0.04866788 0.07755786 -0.16554609 -0.2013383 0.069378056 -0.12515661 -0.013912574 -0.17982373 0.038334064 0.13963856 0.038883097 -0.2763141 -0.10406728 -0.22987576 -0.005816071 0.34887594 0.11283321 0.16175051 -0.08598623 -0.014697787 -0.08541826 0.15305327
controlled 0.38197464 0.07778947 -0.14396048 0.20777436 -0.16680782 -0.15517993 0.011425409 0.21347228 -0.077801555 -0.047473893 -0.090971984 0.16928895 0.13653365 -0.088844776 0.09001821 -0.058947533 -0.06596269 0.027467422 0.067071505 -0.17417169 0.02115424 -0.027948698 0.23996909 0.068700895 -0.067386284 0.013989418 0.16571249 -0.19416924 0.026204538 0.020458592 0.25497106 -0.04802577 -0.27948812 0.22707595 -0.055172715 -0.10646207 -0.00587915 0.26252714 0.032055937 -0.10422332 0.12053716 0.07109631 -0.060571473 -0.090218544 0.14306 0.04073036 0.122002825 -0.15944475 0.20479074 -0.027011719
conjunction 0.42988902 0.06870771 0.020037735 0.25273532 -0.048294496 0.12066961 -0.07499215 0.32013434 -0.038291942 0.09340297 -0.056949258 0.0011397606 0.017996412 -0.045847964 0.010888042 -0.17248175 -0.051209822 0.13169688 -0.2767869 -0.11679201 -0.13795525 0.04420811 0.27541372 -0.0913815 -0.09349678 0.31340328 -0.10508191 -0.011375869 0.13823251 0.03417169 -0.14712067 0.086874336 -0.06844314 0.020980736 0.04808172 0.049087178 0.016322615 0.26422086 0.11855389 -0.039038256 -0.06693165 0.21120512 0.07293869 0.011676304 0.1139534 0.00724309 -0.08438388 0.13975982 0.051825356 0.0055318507
35 0.07811313 0.08208758 -0.05014148 0.19252263 -0.11446365 0.04926904 -0.052434534 -0.15391488 0.18058091 -0.034894604 0.12206564 -0.025069699 -0.2877543 0.08787332 -0.01918147 -0.12195065 -0.29091716 -0.21248198 -0.14463086 0.04107649 0.11165517 -0.065496236 0.05311311 -0.08952093 -0.2254249 -0.03219422 0.107517436 -0.23868547 0.0122152455 0.1338565 -0.05463911 0.05128211 0.03470409 0.15479235 0.15417984 -0.004415661 -0.010060397 -0.1750714 -0.1944699 -0.11092709 -0.23220003 0.118346795 0.10861641 -0.3481342 -0.12595938 -0.21283534 -0.11464956 -0.14148621 0.0077109598 0.036238376
36 0.090639524 0.01120846 -0.11137996 0.12482544 -0.1088638 -0.021622403 -0.062149085 -0.18258592 0.2322426 -0.029104045 0.13136877 -0.042103972 -0.26123232 0.19028592 -0.017117344 -0.14447922 -0.3036383 -0.22986503 -0.0955121 0.07782968 0.1282516 0.030156778 0.06481416 -0.1047734 -0.18970087 -0.039913416 0.09195329 -0.22296014 0.051800594 0.20474763 -0.033968598 -0.005221259 0.008333621 0.20249979 0.13952367 0.039111294 0.035200235 -0.19459236 -0.18454443 -0.18150574 -0.244494 0.0922672 0.12735936 -0.28296024 -0.12840651 -0.13162951 -0.06026428 -0.07310185 -0.019833993 0.06707072
33 0.075857155 0.010734572 -0.12437763 0.10813932 -0.092396826 0.007351332 -0.062205434 -0.14772554 0.23679438 -0.072920755 0.030802898 -0.038406797 -0.28070965 0.18184306 0.018228652 -0.115715794 -0.31543225 -0.26845536 -0.09385565 0.09662996 0.16424142 0.03814735 0.063567504 -0.12136791 -0.17866588 -0.08569011 0.06205831 -0.2333833 0.08352216 0.093963444 -0.06457654 -0.022203296 7.4174243E-4 0.2119758 0.1260159 0.059739154 0.027394542 -0.112380795 -0.15905479 -0.12108995 -0.31139356 0.09796195 0.12851778 -0.28834346 -0.1480835 -0.12887052 -0.056205347 -0.10977806 -0.046222724 0.09213733
34 0.061259273 -0.007369734 -0.09227231 0.08913768 -0.09764826 0.014010653 -0.069214486 -0.19338845 0.28893048 -0.020582784 0.07041889 -0.04998638 -0.26296306 0.19821405 -0.016064458 -0.10442872 -0.33998504 -0.25201875 -0.04589757 0.09252697 0.14908826 -0.005901677 0.054904584 -0.11663781 -0.12987515 -0.052161932 0.0462892 -0.23441195 0.07913192 0.14281929 -0.06865331 -0.004483408 0.014128953 0.20519115 0.11733257 0.022633525 0.015436049 -0.16136043 -0.18353824 -0.12369068 -0.30797467 0.12540239 0.08707091 -0.27351952 -0.14618914 -0.12685418 -0.03237122 -0.10125375 -0.048203073 0.064997755
39 0.08029108 -0.008350717 -0.12058436 0.04877663 -0.08919067 -0.01689981 -0.101392694 -0.22108236 0.29103434 -0.089482516 0.07384246 -0.056798704 -0.21189256 0.14892928 -0.012087696 -0.1376355 -0.31171253 -0.23632702 -0.04332075 0.018671118 0.14122619 0.031812496 0.08970533 -0.12901868 -0.15066248 -0.039047703 0.033899233 -0.21811189 0.073123634 0.13048717 -0.03191102 0.012814977 0.017067222 0.21914187 0.15822092 0.07563167 0.03300065 -0.18713097 -0.15693116 -0.212166 -0.28689843 0.11792987 0.121739194 -0.24951853 -0.1360747 -0.16561945 -0.041417617 -0.093205415 -0.03178797 0.09350519
37 0.07401914 -0.0103886025 -0.12654063 0.0881815 -0.14611441 -0.019281046 -0.064678945 -0.21579309 0.24999951 -0.043457523 0.076586865 -0.097470544 -0.27692327 0.16441122 -0.057370715 -0.08912861 -0.31180894 -0.22525711 -0.07967403 0.018133854 0.15054336 0.00975577 0.070692725 -0.10779926 -0.13826254 -0.043403037 0.039498325 -0.21955197 0.08673819 0.18309012 -0.026166888 -0.040784866 -0.009717599 0.20465568 0.13575822 0.009128299 -0.010563587 -0.17455347 -0.17312695 -0.15898833 -0.28033698 0.11964249 0.11011638 -0.27480614 -0.13686256 -0.18219379 -0.05644832 -0.07723282 -0.042871572 0.07406115
38 0.09901263 -0.03215794 -0.12049133 0.0554966 -0.10975845 0.014989297 -0.06862666 -0.22612634 0.2245168 -0.040178422 0.11002597 -0.08879021 -0.27741164 0.15051596 -0.021432387 -0.09941279 -0.32759863 -0.24107076 -0.06412351 0.036883164 0.16919532 -0.019048804 0.050411843 -0.13245691 -0.12628825 -0.032197334 0.023320816 -0.21462333 0.063558176 0.15268524 -0.014618115 0.0046578906 0.010977426 0.20787872 0.14445454 0.02747053 0.03131061 -0.1955877 -0.18209268 -0.17135192 -0.26047015 0.11715716 0.09204044 -0.2942348 -0.13003066 -0.15277265 -0.04176498 -0.1280253 -0.050731815 0.07770122
43 0.095890924 -0.057988122 -0.10966633 0.07482175 -0.06501505 -0.024100369 -0.07759954 -0.19306062 0.22192217 -0.09245655 0.048409123 -0.07710421 -0.23134309 0.194606 0.0026811927 -0.10865225 -0.3039767 -0.23064382 -0.017841361 0.100741535 0.20300946 0.017548507 0.11957386 -0.15226609 -0.17651442 -0.068469755 0.067605786 -0.20377976 0.09151057 0.091138326 0.0028652311 -0.037357796 -0.019971231 0.24553864 0.10881606 0.08969012 -0.007851105 -0.1366685 -0.16383071 -0.12354419 -0.306743 0.09828126 0.08999707 -0.28349477 -0.13636571 -0.16957065 -0.044814955 -0.14280438 -0.09570938 0.06915423
42 0.09904341 -0.0064734067 -0.11114379 0.081258506 -0.10437612 -0.0053620376 -0.06817836 -0.17492832 0.25274265 -0.060150158 0.114176475 -0.05997081 -0.24606325 0.17426191 -1.074994E-4 -0.1109948 -0.32138982 -0.24109188 -0.08678976 0.06197032 0.16511804 0.0133515885 0.06184226 -0.13163897 -0.1375243 -0.037960306 0.07294574 -0.25694346 0.10193332 0.13699324 -0.023722904 -0.018719552 -0.02284275 0.21211627 0.1402106 0.07281036 0.025943374 -0.13897887 -0.16231191 -0.15689307 -0.294865 0.09837075 0.104036696 -0.28356382 -0.13475278 -0.17115082 -0.022300798 -0.10042274 -0.06372639 0.0559839
41 0.09419372 -0.0010663108 -0.08267807 0.09085965 -0.07796349 -0.025965855 -0.081604235 -0.17800762 0.1905292 -0.15799846 0.025474304 -0.07266203 -0.22990885 0.25835115 0.048105642 -0.11753731 -0.3369109 -0.24816942 -0.063189015 0.078116454 0.16551444 0.04106437 0.13883857 -0.15106119 -0.08879852 -0.020782549 0.07682533 -0.21705501 0.053644713 0.10546271 -0.040114887 -0.067105636 -0.042810913 0.19716673 0.08625346 0.09759999 -0.0064796177 -0.12078317 -0.18612109 -0.124144085 -0.31073624 0.06606628 0.033188056 -0.29723048 -0.12507145 -0.15995826 -0.13503739 -0.049100164 -0.08981101 0.08677609
40 0.08767204 0.07294057 -0.08933976 0.08598456 -0.13919462 -0.017847398 0.0049512386 -0.047238115 0.11080466 0.011855921 0.1520864 0.045522436 -0.21639219 0.11373683 -0.018111963 -0.039697804 -0.07528005 -0.15602176 -0.15741593 0.1322624 0.17872874 -0.06316928 0.06417113 -0.0599206 -0.31793344 0.018509882 0.18547928 -0.23741508 -0.0028177495 0.123957425 -0.1611785 0.0041892407 0.04961184 0.16674593 0.15649946 -0.18176 -0.008244016 -0.19063857 -0.12898007 -0.037656832 -0.18534353 0.09089534 0.14168914 -0.42573336 -0.20108049 -0.11954913 -0.13311309 -0.20425077 -0.019847848 0.011810365
22 0.03376989 -0.10577105 -0.11841683 0.022405855 0.063260995 0.11152121 -0.050947636 -0.0035496426 0.15581323 0.22644676 0.01973259 -0.063605465 -0.28818652 0.058400095 0.10795802 0.022544459 -0.095094204 -0.16774407 0.044592183 0.09903788 0.07057026 -0.004617583 0.26690087 0.02407044 -0.054715812 -0.06382295 0.124136776 -0.1963018 -0.06202522 -0.09507374 -0.074152455 -0.06272698 0.006896761 0.19015439 0.03296566 0.13490215 0.17044829 -0.2164432 -0.42411232 0.2090067 -0.22732948 0.19546773 0.22682323 0.109013915 0.0068057775 0.013933172 -0.023882331 0.16121858 -0.025532352 0.17532296
23 0.031302314 -0.10127464 -0.11965668 0.03685496 0.06519023 0.085516684 -0.057468906 -0.018800827 0.17730193 0.21141686 0.0068543092 -0.063929036 -0.27285865 0.04855691 0.11942384 -0.0041027805 -0.107798286 -0.17009607 0.043141477 0.09790663 0.08456091 0.014122692 0.28952375 0.03603983 -0.018317847 -0.050885618 0.11678706 -0.20265354 -0.091068126 -0.09416293 -0.06432151 -0.04512203 -0.015142828 0.17663498 0.03179186 0.14600652 0.15831237 -0.2306308 -0.4210934 0.21972185 -0.21283127 0.18910637 0.22130913 0.12469212 0.002871285 0.0025069143 -0.0048743626 0.15572299 -0.051167153 0.17599867
24 -0.01906324 -0.25399956 -0.13601972 0.09374027 0.18688987 0.12032716 -0.09535983 -0.23042463 0.19073454 0.033991624 0.013412543 -0.041337967 -0.28480807 -0.043566026 0.049572267 0.07909327 -0.040134784 -0.12589867 0.04469207 0.028530408 0.12827684 -0.047302533 0.25810403 -0.17392014 -0.009762409 0.071057536 0.1325283 -0.2500818 -0.10225632 0.12654692 0.082516424 -0.013851922 0.12729374 0.13967972 0.12737572 0.17943496 0.04766613 -0.14395246 -0.1473265 0.19943745 -0.22870556 -0.0012985526 0.2038651 -0.089407146 0.054864116 -0.19578001 0.085708015 -0.21962057 0.066979274 0.1966129
25 -0.029846914 -0.20234464 -0.11984147 0.09029793 0.15466301 0.095991656 -0.07860259 -0.21801062 0.1858074 0.040361226 0.04092922 -0.018088458 -0.31465927 -0.029589875 -0.037743457 0.043547787 -0.0364577 -0.12364633 -0.011250992 0.037057668 0.18846469 -0.12806416 0.24201815 -0.14497763 -0.012367222 0.029101804 0.14996515 -0.23957038 -0.12812728 0.08628422 0.067635216 -0.049041674 0.12825567 0.09536672 0.12136365 0.18349871 0.011706027 -0.14350751 -0.18811089 0.20574383 -0.24375334 0.026892275 0.18104036 -0.109505 0.0063909995 -0.2104293 -0.0011335518 -0.25130358 0.11640651 0.21855725
26 0.01695722 -0.11494948 -0.119621426 0.020697856 0.07234414 0.07944196 -0.05043257 -0.021423114 0.16124587 0.21755216 0.011875064 -0.07029615 -0.27134803 0.022681661 0.11213895 0.010121334 -0.07775376 -0.16487634 0.043982267 0.09830321 0.04571739 0.010133019 0.28983113 0.02262606 -0.02213482 -0.047938265 0.12699014 -0.19818732 -0.0782932 -0.09308081 -0.056075837 -0.03811685 -0.007459752 0.1577793 0.053579822 0.17148128 0.17001459 -0.22174087 -0.41901588 0.24292827 -0.2112668 0.19498351 0.2162444 0.12686478 0.03552643 -0.013389083 -0.022821771 0.16419312 -0.04490646 0.19111875
27 0.011711049 -0.125129 -0.1161997 0.0023017158 0.060408015 0.07202138 -0.056925565 -0.014595478 0.16405845 0.23282142 0.014713209 -0.062148463 -0.25201592 0.04035939 0.10708205 0.03901116 -0.11380309 -0.16464157 0.02955857 0.080560416 0.06652017 -0.0052639465 0.31016335 -0.00942772 -0.013669472 -0.045120865 0.10882572 -0.18888505 -0.079352446 -0.083468884 -0.046651866 -0.03547689 0.0030403857 0.15626076 0.03922796 0.16852239 0.16397086 -0.20771216 -0.4314941 0.23034129 -0.19793658 0.1855886 0.2119449 0.1487377 0.008600419 0.020453561 -0.036744967 0.18756306 -0.027114851 0.19598138
28 0.010961733 -0.1128238 -0.13078338 0.033993732 0.06250112 0.081061915 -0.028664902 -0.02497917 0.16350274 0.23824912 0.025852729 -0.085360214 -0.27490836 0.020121649 0.11362761 0.033664197 -0.101525635 -0.14089845 0.023149218 0.08959897 0.062670976 -0.02609117 0.30015415 0.0025884465 -0.020726612 -0.067675315 0.15353486 -0.1801769 -0.10879253 -0.08953985 -0.060983595 -0.031175109 0.017917445 0.15401727 0.045570016 0.15995559 0.16379356 -0.23424135 -0.42824897 0.21368316 -0.19957365 0.18376218 0.18349369 0.13180907 0.0063892733 0.017227946 -0.010569945 0.18942492 -0.009687436 0.1815078
29 0.017401576 -0.12575239 -0.095218174 0.031332247 0.06036891 0.04217623 -0.07169825 -0.03785581 0.15461706 0.19654834 -0.0014622676 -0.041265894 -0.2608825 0.056296587 0.06431553 0.010390229 -0.11275107 -0.13236707 0.022274932 0.08359841 0.07827062 0.023759749 0.30066007 0.0023314317 -0.018233526 -0.07868826 0.13679919 -0.13020718 -0.14120115 -0.09075259 -0.07318001 -0.054407857 0.020251524 0.1724969 0.016892368 0.19412866 0.19035636 -0.21744883 -0.41373318 0.21641381 -0.24362884 0.17618126 0.22285526 0.16006877 0.048138164 0.038603812 -0.057391293 0.17901431 -0.08051494 0.16628776
30 0.089269325 -0.08073577 -0.077966824 0.05689326 -0.0485004 0.06839109 -0.025329662 -0.016964491 0.08976361 0.2617612 0.14235966 -0.013662069 -0.36452398 -0.015886134 0.031802285 0.001619632 -0.09453023 -0.1410688 -0.088178806 0.115135886 0.07438691 -0.050964884 0.22601457 0.01969482 -0.18774623 -0.055299796 0.18945855 -0.2243287 -0.120196946 0.012156514 -0.08917414 0.0047467765 0.1212155 0.16823435 0.0869171 0.019982982 0.18023847 -0.22687672 -0.4387285 0.10978305 -0.16777164 0.1775632 0.21691929 -0.046475966 -0.043077573 -0.07100516 -0.071619585 0.06945843 -0.009474673 0.123393536
32 0.0962568 0.03874055 -0.13688022 0.1754306 -0.18680318 0.014673666 -0.03043777 -0.10659093 0.17755246 0.04092391 0.101552166 -0.06354437 -0.3030364 0.19020711 -0.001485602 -0.10797589 -0.25867283 -0.23587243 -0.06954341 0.15101373 0.14140776 0.08778298 0.019094488 -0.15554717 -0.10505226 -0.13353482 0.035215825 -0.23124334 0.13624857 0.11086393 -0.10374897 0.038045075 -0.02296181 0.2373479 0.09864873 0.044724416 -0.039050486 -0.08348252 -0.19354244 -0.039761513 -0.3026234 0.18073747 0.10813304 -0.24598968 -0.0921179 -0.09984891 -0.03499441 -0.18429306 -0.024040757 0.09594108
31 0.05526227 -0.16688521 -0.12101543 -0.032556064 0.059742894 0.11012378 -0.06235047 -0.0041038026 0.12989448 0.1486357 0.0044447854 -0.06718957 -0.3000403 0.029090067 0.13850744 0.015630612 -0.17536472 -0.19356018 -0.0041851983 0.07433859 0.040272534 -0.024258232 0.3172181 -0.018345049 -0.041313678 -0.07102673 0.15927069 -0.16144687 -0.09824501 -0.05816939 -0.0753647 -0.034936447 0.032445136 0.13099559 0.05209679 0.15097234 0.1806827 -0.1536139 -0.42810398 0.16528729 -0.21257754 0.18994136 0.1936449 0.078308605 0.0258363 0.03393392 -0.040475752 0.1995644 -0.045998655 0.20995939
19 0.028653769 -0.12723315 -0.10305548 0.042161573 0.053667672 0.0989322 -0.09050757 -0.053141028 0.17380667 0.18832408 0.04824509 -0.072931744 -0.26400942 0.08172024 0.115488656 0.0022072024 -0.12146241 -0.1996881 0.026629115 0.12096451 0.07124674 0.0067041274 0.25476396 -0.001910058 -0.023179676 -0.045667134 0.09608745 -0.22462918 -0.08623437 -0.07089634 -0.06902127 -0.058706142 -0.013524061 0.20398435 0.05464189 0.15694562 0.13330957 -0.21614322 -0.4195295 0.19903092 -0.22961935 0.19002095 0.2167016 0.123674005 0.030311543 -0.016196946 -0.0063726814 0.14685857 -0.05437804 0.1858177
17 0.047627646 -0.101330735 -0.11922962 0.0047211647 0.04011216 0.12158386 -0.07218709 -0.0050836457 0.18695328 0.19740726 0.024681173 -0.08883162 -0.2937616 0.049116448 0.09511235 -0.012903405 -0.12452653 -0.17560188 0.049657766 0.1269093 0.04152539 0.005561638 0.27279717 -0.008457723 -0.02890606 -0.062189315 0.10836909 -0.20210543 -0.08847428 -0.061313212 -0.06560159 -0.06989012 -0.01168126 0.20797196 0.02816801 0.13041148 0.15483333 -0.25816473 -0.4183993 0.20399536 -0.20590843 0.1979322 0.20437314 0.10471563 -0.022644952 -0.009145025 -0.027329698 0.15441541 -0.030856436 0.1519655
18 -0.06633135 -0.26208583 -0.19393408 0.06711302 0.2474985 0.13421308 -0.07685229 -0.22587885 0.19910657 -0.07608226 0.16792697 0.0121265445 -0.2094367 -0.032724436 -0.0053002224 0.051431824 -0.15030019 -0.053376954 0.08580947 -0.076695494 0.019923942 -0.035534285 0.13154788 -0.16404082 0.019583143 0.15952142 0.057787403 -0.24598244 -0.1203803 0.15253222 0.12403715 -0.017416393 0.21243514 0.12770048 0.08882022 0.0943254 0.03610482 -0.17325401 -0.044140086 -0.045992635 -0.19207528 -0.009940321 0.21250863 -0.045834847 0.02732646 -0.2362089 0.044835072 -0.32889122 0.023951242 0.18541393
15 0.091055825 -0.10902708 -0.08632749 0.06254961 -0.024530748 0.11814327 -0.043708805 -0.019786848 0.11486786 0.22158983 0.11934736 -0.07833297 -0.32015345 0.03119467 0.056333598 -0.025178524 -0.09136545 -0.21299352 -0.028322536 0.15042882 0.017933529 -0.036636908 0.18514287 -0.018562585 -0.12563133 -0.07785874 0.120009 -0.23317082 -0.12441601 -0.03576364 -0.08440169 0.014283157 0.0688187 0.21254891 0.08196339 0.06991751 0.17096858 -0.25278094 -0.4228281 0.15451837 -0.18168312 0.22830757 0.23197074 0.027707195 -0.047845423 -0.01232378 -0.039123178 0.09327654 -0.0065821535 0.15418392
16 0.06350581 -0.12203426 -0.14966641 0.071524546 -0.020669157 0.08419123 -0.07319112 -0.01898362 0.19096726 0.23105277 0.06944697 -0.08795163 -0.32020035 0.04692752 0.062181342 -9.973282E-4 -0.110765256 -0.20946783 0.045122538 0.14727904 0.019650346 0.004203076 0.21026811 -0.045684814 -0.028726652 -0.072102234 0.07348816 -0.22004321 -0.03529261 -0.03349978 -0.09322318 0.018507354 0.020969056 0.2861546 0.08766974 0.09147229 0.1445338 -0.23102202 -0.3817462 0.18579149 -0.19629754 0.19555493 0.21334201 0.07070496 -0.03963738 -0.014314128 0.0056586866 0.10845782 -0.034009967 0.19128951
13 0.060766663 -0.1376957 -0.12002249 0.029168159 -0.016978374 0.08075524 -0.0483308 -0.0338544 0.1949775 0.23850301 0.039140627 -0.07457481 -0.31005108 0.06406032 0.052874148 -0.049904916 -0.11204819 -0.14947243 -0.0015875419 0.19108337 0.045433346 0.029711038 0.20222884 0.00864196 -0.037293173 -0.08512234 0.06691715 -0.22198285 -0.060963064 -0.06473023 -0.11437358 -0.01379688 0.010947201 0.25430417 0.054307453 0.15166587 0.1661716 -0.2467654 -0.36175355 0.17472206 -0.21310748 0.19571565 0.2334957 0.09059085 -0.009617626 0.016794292 -0.012421153 0.115750015 -0.069652535 0.1987929
14 0.07206706 -0.102309 -0.11596169 0.028582677 -0.014767606 0.10953554 -0.06088031 -0.019597033 0.21092696 0.23824573 0.047614455 -0.08890675 -0.30114493 0.054750096 0.08589597 -0.045706984 -0.121134445 -0.19591478 0.04032203 0.16049662 0.03418595 -0.002474896 0.19701207 -0.0075944923 -0.044174198 -0.07435443 0.06915687 -0.22909498 -0.06358294 -0.039412744 -0.09796802 -0.010280138 -8.0609974E-4 0.22572912 0.073646486 0.10231036 0.16136894 -0.2296144 -0.4030053 0.1951586 -0.20842005 0.19339013 0.23085755 0.07713017 -0.061182953 -0.0045643644 0.0014262785 0.13057853 -0.06233711 0.16662654
11 0.11697766 -0.15848507 -0.109522946 0.0051536574 -0.03721415 0.12097795 -0.013843245 -0.0025901897 0.19310759 0.17128196 0.0513279 -0.08415456 -0.2862102 0.078639954 0.10841839 -0.04959651 -0.13222949 -0.23350738 0.010480446 0.17887597 0.0064818896 0.013156823 0.22968015 -4.3484275E-4 -0.058070455 -0.08463815 0.012984105 -0.23725191 -0.039146278 -0.076207034 -0.10731419 -0.022295384 -0.0036162392 0.25805712 0.050807346 0.1506822 0.1731531 -0.19186415 -0.37268314 0.1665301 -0.2085244 0.22649379 0.21105525 0.087337874 -0.056924302 0.016940482 -0.032387417 0.13198955 -0.05477461 0.116633706
12 0.12702024 -0.13476549 -0.11579801 0.043978106 -0.060202174 0.14372581 -0.028715996 0.072809905 0.18633911 0.20563424 0.084326155 -0.08814378 -0.32484728 0.079186514 0.0897737 -0.063859515 -0.061890528 -0.18846144 -0.03705639 0.20581762 -0.035013933 -0.0022807 0.16653411 -0.037669074 -0.075416006 -0.08914543 0.04532171 -0.2227858 -0.0129953185 -0.002412571 -0.12678185 0.05145461 0.02574508 0.27906713 0.09193891 0.03111843 0.15130626 -0.21340078 -0.38562676 0.18231073 -0.19015701 0.18815151 0.24218422 0.022302471 -0.08556499 -0.019224146 0.008885819 0.05078023 -0.023929823 0.16271015
21 0.030375548 -0.11900696 -0.1325177 0.020743722 0.04484836 0.09066317 -0.07487318 -0.017403154 0.20584254 0.23024169 0.031001158 -0.079900175 -0.27621007 0.047598664 0.12242597 0.016216895 -0.09607009 -0.17098477 0.03701312 0.102096245 0.065466516 -0.004903023 0.28739008 -0.019655433 -0.016925234 -0.06888952 0.118705 -0.20488071 -0.09519836 -0.055789072 -0.07141899 -0.047275297 -0.03049624 0.19239375 0.023685507 0.12755187 0.15341255 -0.2063431 -0.41734347 0.21862268 -0.19604735 0.17768593 0.20415232 0.14264107 -0.0034063894 0.0017278425 -0.0032212874 0.13516694 -0.0526806 0.20031717
20 0.06311089 -0.048129383 -0.089755334 0.056991365 -0.072345115 0.10248321 -7.575331E-4 0.0035930315 0.14714527 0.23328637 0.14574221 -0.016078578 -0.35334176 0.016336873 0.031023534 -0.0069422866 -0.08927039 -0.20334296 -0.061415613 0.13564505 0.08236678 -0.051360644 0.18251511 0.010046501 -0.18376127 -0.052225128 0.15098268 -0.24802996 -0.0980192 0.015065377 -0.1011454 0.013519168 0.07055002 0.17366096 0.0756226 0.020784827 0.11734799 -0.22709963 -0.42580143 0.13254455 -0.20765784 0.2120327 0.2331576 -0.09686063 -0.07452428 -0.04313249 -0.06874545 -0.0062449756 0.016423805 0.13335603
10 0.10264963 -0.051601864 -0.10303788 0.09854319 -0.121858366 0.114308216 0.014980395 -0.0026523757 0.14766668 0.18823756 0.13478865 -0.09865135 -0.3574394 0.053716417 0.07555335 -0.0056853406 -0.10595514 -0.18377545 -0.079104826 0.22151765 0.06568637 -0.062460765 0.14238012 -0.0012467713 -0.09421824 -0.11936066 0.08214103 -0.26089063 -0.010872394 -0.02118123 -0.17262626 0.057087686 0.05553902 0.21501702 0.123056695 0.015572968 0.117840186 -0.19093622 -0.40732533 0.15750165 -0.17424244 0.17361812 0.20061515 -0.090588205 -0.12880996 -0.0043365406 -0.01563997 -0.059236053 -0.018590258 0.14486976
79 0.039412394 -0.08453134 0.009555111 0.10757409 0.025606757 -0.19240212 -0.20919433 -0.25283155 0.27537993 -0.10908156 0.00481119 -0.04894035 -0.15339763 0.20111687 -0.07671164 -0.106151186 -0.35992348 -0.23820649 -0.007287871 -0.020393712 0.09335674 -0.026788559 0.09111349 -0.15671021 -0.102137916 -0.009017602 0.11028208 -0.18451424 0.07610204 -0.003998196 -0.05816061 -0.057318244 0.06666843 0.22817682 0.08714602 0.15079732 0.012173023 -0.050180413 -0.1497083 -0.09544473 -0.3651861 0.052173346 0.12896371 -0.17928977 -0.13317397 -0.14403863 -0.09679273 -0.015991611 0.0016393549 0.10367018
78 0.05155382 -0.024350818 -0.054814804 0.13462132 -0.014242771 -0.1638394 -0.19559129 -0.1821061 0.29619303 -0.09546507 0.01395027 -0.003794269 -0.19344592 0.19408128 -0.043629393 -0.1250657 -0.3313704 -0.20647824 -0.114714615 0.05685776 0.121031545 0.037113428 0.114679344 -0.1563391 -0.15755083 0.016512746 0.15280645 -0.23108616 0.1023804 0.040251456 -0.09762356 -0.06381568 -0.019691573 0.20970514 0.10458695 0.13138524 -0.020106759 -0.13354763 -0.15684797 -0.049526554 -0.31082624 -0.025232324 0.138655 -0.20076856 -0.10135567 -0.14702307 -0.035222646 -0.08290796 -0.0022793536 0.15106171
77 0.06482289 -0.04379954 0.025751477 0.07654045 -0.029153267 -0.0861645 -0.17854297 -0.20394392 0.26284263 -0.19186114 0.016258843 -0.039698984 -0.16882999 0.20589098 0.0012415174 -0.055456914 -0.3453613 -0.25693473 -0.08702631 0.04890628 0.1163282 0.035350192 0.13899893 -0.15092155 -0.106979415 0.007276567 0.1338293 -0.25781485 0.06605294 0.081225686 -0.12853736 -0.09446221 -0.075751826 0.2196944 0.07519457 0.13214847 0.03163681 -0.07192516 -0.13557243 -0.10814892 -0.35033956 0.03289851 0.113062754 -0.20144004 -0.092844084 -0.13595839 -0.10314676 0.009123073 -0.034737006 0.099499606
82 0.11536565 -0.05987508 -0.0015087334 0.13531259 -0.023578338 -0.052266315 -0.18154275 -0.219318 0.29835787 -0.115427755 0.052943196 -0.086778715 -0.19134948 0.19126818 -0.06190631 -0.09422111 -0.34890595 -0.23648655 -0.05860482 0.022667114 0.13461941 -0.016063375 0.12615255 -0.16226156 -0.07548196 -0.0088946335 0.14694314 -0.19507611 0.10744236 0.0770316 -0.091074064 -0.030084105 0.011046918 0.19649859 0.06729175 0.16200283 0.028705258 -0.06776019 -0.11507482 -0.056055497 -0.3368149 0.052753963 0.11385009 -0.21606176 -0.13659093 -0.15144874 -0.0582717 -0.08450915 0.04464872 0.16195096
83 0.08183363 -0.05767668 -0.006631766 0.086153924 -0.029311186 -0.11835753 -0.102226526 -0.19873875 0.32571432 -0.11967133 0.03707413 -0.034721166 -0.14459828 0.16762467 -0.05748711 -0.08852316 -0.35620326 -0.26208794 -0.060167715 0.04944453 0.15959935 -0.037289023 0.09664114 -0.18127222 -0.09564264 -0.016943641 0.092887804 -0.24226502 0.08464952 0.025040656 -0.08738419 -0.06788755 0.014133756 0.2540347 0.13553515 0.1481354 -0.025679566 -0.11041492 -0.14640693 -0.10124216 -0.3189381 0.025850343 0.1153411 -0.2484672 -0.108430505 -0.096944876 0.00712182 -0.03514909 0.012651379 0.13210781
80 0.18578543 0.08506244 0.013228799 0.18485807 -0.13128777 -0.05294549 -0.07116668 -0.14598991 0.17682384 -0.047125015 0.12586129 0.04897763 -0.28892693 0.04231815 -0.043024316 -0.059272863 -0.20942174 -0.12543245 -0.16378556 0.02323525 0.10663112 -0.1361627 0.057358988 -0.06344903 -0.28089786 0.004434129 0.24846974 -0.29480684 -0.02392697 0.07615409 -0.056058936 0.0034129051 0.08112201 0.13984622 0.13203174 -0.017104663 -0.06305599 -0.070320435 -0.14235704 -0.07483484 -0.2168825 0.07521141 0.123695575 -0.3591265 -0.11170498 -0.16110665 -0.11799156 -0.21220332 -0.008505606 -0.02769145
81 0.111589804 -0.061306946 -0.017983697 0.085226454 -0.048158173 -0.098618485 -0.1620064 -0.18153249 0.35004565 -0.14641781 -0.010837115 -0.031189987 -0.20655194 0.22882675 -0.03995476 -0.11321982 -0.33628356 -0.2174351 -0.051091067 0.062468156 0.0795869 0.010247791 0.06924205 -0.18059672 -0.014183801 -0.07105723 0.094140284 -0.17607231 0.087212175 0.06407353 -0.04671834 -0.073373266 -0.09737425 0.22010343 0.09714511 0.13454196 -0.035111114 -0.08140176 -0.16944174 -0.012446623 -0.36635697 0.07419527 0.09057578 -0.22479697 -0.07669653 -0.133212 -0.01817297 -0.06923252 -0.008805194 0.16080883
86 0.08968438 -0.0600225 0.0072762487 0.07021398 -0.028077576 -0.10434403 -0.15346187 -0.22944883 0.30375242 -0.11956094 0.018141277 -0.042286403 -0.13301678 0.17460965 -0.021225302 -0.099549286 -0.3749071 -0.20233783 -0.073332794 0.03174388 0.11147547 -0.041621752 0.119141735 -0.18262202 -0.09913984 -0.03455347 0.076254845 -0.2687192 0.110822506 0.031443022 -0.11478254 -0.016414043 8.202734E-4 0.21826836 0.077472456 0.13176012 -0.024537206 -0.04704795 -0.15726398 -0.10139312 -0.3192865 -0.0032972528 0.12831168 -0.2384031 -0.12382182 -0.19145809 -0.036663007 -0.018421754 -6.2631874E-4 0.15865108
87 0.10879902 -0.039917044 0.019670442 0.07612446 0.013916761 -0.07699623 -0.16263945 -0.21067473 0.3111176 -0.19634369 -0.03834722 -0.024994157 -0.17591365 0.17266609 -0.03421113 -0.122583136 -0.35160434 -0.2669243 -0.07198011 0.03332136 0.102614634 -0.053773504 0.08009692 -0.17587234 -0.091751024 -0.012150324 0.1230818 -0.21507236 0.074878044 0.048026595 -0.08300918 -0.08629076 -0.06828844 0.18448947 0.0637764 0.12490369 0.01674016 -0.048281018 -0.17582726 -0.11474628 -0.3353294 0.04460737 0.108371936 -0.24194105 -0.079548776 -0.1385512 -0.049589656 -0.04424946 -0.022651527 0.15699498
84 0.11495585 -0.07019725 -0.0068467758 0.12688503 -0.013279924 -0.11817414 -0.13669077 -0.22998929 0.2938917 -0.11578825 0.037204374 -0.05073449 -0.17833026 0.19938985 -0.03476418 -0.071494564 -0.39921275 -0.21737468 -0.079829 0.05509466 0.13149206 -0.029219266 0.08079977 -0.190313 -0.09203939 -0.003498727 0.08306722 -0.20003487 0.07180279 0.02529321 -0.10652156 -0.06035658 -0.0088819815 0.20185569 0.07945727 0.14962238 0.013064949 -0.08653994 -0.15363388 -0.061783656 -0.3593301 0.041625097 0.11253823 -0.22850966 -0.09786894 -0.15049411 -0.0065796054 -0.041962497 0.00895702 0.10402252
85 0.101035796 0.009698092 0.067853265 0.15073758 -0.06273156 -0.07268833 -0.12642872 -0.19706702 0.25217232 -0.17854361 0.016097639 4.5383925E-4 -0.1755427 0.18263921 -0.0499427 -0.06934734 -0.33600688 -0.23366696 -0.15817162 0.017641416 0.11133294 -0.06337571 0.1057652 -0.09165785 -0.16084652 0.021601409 0.18579042 -0.2633266 -0.004545757 0.051315915 -0.08144251 -0.032770257 0.016376706 0.16372494 0.11180119 0.117960475 -0.03521545 -0.03769624 -0.1829581 -0.058254946 -0.29854372 0.0550827 0.13014248 -0.3283828 -0.10821928 -0.1483716 -0.059503026 -0.09757944 0.017162945 0.06861833
67 0.11312098 -0.02788702 -0.022423897 0.076847814 0.0037608482 -0.07885358 -0.13223886 -0.1906738 0.28768584 -0.1657212 5.275182E-4 -0.05494268 -0.20971502 0.21918093 -0.030038757 -0.09777319 -0.34520626 -0.243687 -0.048853118 0.046626583 0.15356085 0.0064248233 0.12123798 -0.2076759 -0.08349249 -0.020941105 0.109372325 -0.24893977 0.025540378 -0.017941913 -0.10645863 -0.021504847 -0.0346078 0.18983957 0.08305951 0.11585808 -0.02593944 -0.08844801 -0.17936094 -0.06700698 -0.35568455 0.045951102 0.11053483 -0.23509416 -0.11883699 -0.09089736 -0.05741671 -0.10756159 -0.057874694 0.07819094
66 0.108625226 -0.033217248 -0.061932467 0.114615925 -0.065157406 -0.05642388 -0.11147719 -0.16277908 0.27580532 -0.17211607 0.005589687 -0.06736408 -0.16674823 0.15242338 0.033352084 -0.1451896 -0.2923727 -0.24169749 -0.094831295 0.09147147 0.14312798 0.046582893 0.10187583 -0.16628623 -0.10885618 -0.0067008506 0.13142672 -0.19014959 0.019861925 0.06417212 -0.046249405 -0.040850967 -0.037912454 0.20418891 0.07569906 0.06642187 -0.06533315 -0.10919447 -0.23013882 -0.12136161 -0.358652 0.044714607 0.1099384 -0.27305487 -0.0868253 -0.22183645 -0.13541922 -0.054167274 -0.03327914 0.105483264
69 0.059937526 -0.07107624 -0.0030118362 0.08303314 0.012806129 -0.15563445 -0.14439878 -0.2277167 0.29328462 -0.17078659 0.0047593145 -0.0908786 -0.15123436 0.18537755 -0.034122527 -0.11261086 -0.27972105 -0.22111456 -0.044034004 0.058636826 0.1576424 -0.015201867 0.102619335 -0.1770785 -0.09974612 0.04679677 0.08054853 -0.21475784 0.05505516 0.028767616 -0.059463993 -0.11451494 0.019906355 0.30801907 0.0776396 0.091366105 -0.022723814 -0.0992312 -0.15843485 -0.091244884 -0.32248068 0.053776078 0.12607726 -0.21877746 -0.14726949 -0.17687538 -0.09731266 -0.07330668 -0.04879586 0.1174421
68 0.10711172 -0.01747792 -0.060985554 0.12340454 -0.07208652 -0.07886117 -0.111624524 -0.21994826 0.2935277 -0.08210369 0.0072317743 -0.08260791 -0.20305066 0.19982788 -0.024418037 -0.03818201 -0.3277318 -0.23774047 -0.06893809 0.061110225 0.14227013 0.010244961 0.13497071 -0.1775543 -0.13457015 -0.06866484 0.09170509 -0.23106278 0.046013337 0.04772241 -0.078887284 -0.03229673 -0.027496677 0.20815682 0.11863538 0.12340811 -0.012609357 -0.03342467 -0.18870556 -0.0946213 -0.3486656 0.008438097 0.08909716 -0.27112532 -0.09915203 -0.14239287 -0.062762074 -0.09371675 -0.02171459 0.09811502
generated 0.25090674 0.09942694 -0.068439074 0.4246152 -0.1790273 -0.0957928 0.05508919 0.1120676 -0.09512363 0.10323321 -0.12909718 0.057688013 -0.08095853 -0.11062359 -0.010803889 -0.015250453 0.04404525 0.036642175 -0.15538165 -0.18769298 -0.053288113 0.020260451 0.27157125 0.20813304 0.11713845 -0.057886727 0.10744077 -0.2640278 0.1230421 0.046531804 -0.09108724 0.027213534 0.004979014 -0.10227985 -0.03972285 -0.046282403 0.10059683 0.16057381 -0.04881918 -0.1806021 0.1406822 -0.036097478 -0.016375026 -0.19892831 -0.122996934 0.20949188 -0.113091536 -0.24185696 0.19235377 -0.0743503
70 0.15268531 0.04525038 0.05941673 0.18245967 -0.1316923 -0.047234252 -0.039020922 -0.16594802 0.2179666 -0.06734702 0.10112866 0.062104758 -0.28136918 0.06466354 -0.012110682 -0.10356785 -0.20755102 -0.14728574 -0.1864052 0.037932497 0.14074129 -0.09871789 0.034983076 -0.07893012 -0.28121158 6.649204E-4 0.21054107 -0.25932124 -0.05255258 0.0367836 -0.041037016 -0.027575107 0.060428876 0.177453 0.09562474 0.0025366533 -0.04999535 -0.09900489 -0.1697292 -0.093842044 -0.23015566 0.07948443 0.09123649 -0.34304982 -0.11233155 -0.19210635 -0.15101928 -0.19921967 -0.013905898 -0.04400144
71 0.09121532 -0.012784978 -0.012141686 0.09703652 -0.012760094 -0.1023957 -0.09274888 -0.1842092 0.31815434 -0.20424835 0.008049961 -0.026930131 -0.16241486 0.19765127 -0.0038668346 -0.078320175 -0.35399464 -0.2910496 -0.026680559 0.04404169 0.1228927 0.019952875 0.10737738 -0.21475321 -0.11078645 0.022756869 0.06378922 -0.2300711 0.077889316 0.018517599 -0.05063948 -0.094542414 -0.06307362 0.21227036 0.08112862 0.15272504 -0.024975175 -0.11060601 -0.16456142 -0.047003083 -0.32706892 0.017751079 0.09071176 -0.2304383 -0.09186678 -0.15702428 -0.07634849 -0.031433783 -0.023993813 0.0985808
72 0.099753566 -0.057911754 -0.04545491 0.14486954 -0.06503036 -0.06929979 -0.13387552 -0.16458584 0.23073362 -0.12669635 0.01089453 -0.06735832 -0.21896021 0.21005854 -0.04700215 -0.08346237 -0.35501432 -0.2383705 -0.07255905 0.0796957 0.069658644 0.018761124 0.1251118 -0.20455952 -0.14048022 -0.0114438925 0.10118313 -0.20827694 0.07572122 0.092430785 -0.07461073 -0.016239705 -0.030562203 0.20135827 0.103006184 0.10642249 0.01780065 -0.1441092 -0.18256402 -0.070587404 -0.361934 0.07387313 0.14545625 -0.20957355 -0.08422952 -0.17382911 -0.043809213 -0.113634795 -0.017295338 0.08282429
73 0.111861244 -0.073885985 -0.030725738 0.09012993 -0.031902 -0.09403566 -0.16535546 -0.1840005 0.28321218 -0.17110766 -0.017721538 -0.068658836 -0.19365786 0.18567123 -0.01608584 -0.096570745 -0.34869096 -0.24819976 -0.042577673 0.05397474 0.15366332 -0.034934934 0.104155354 -0.19964486 -0.08004682 -0.08527913 0.08723367 -0.24534865 0.074428335 0.0057073697 -0.04821205 -0.0979126 -0.0073114927 0.18343553 0.09436576 0.14509344 0.003884895 -0.11002705 -0.19148801 -0.063989125 -0.31168163 0.045209955 0.1262174 -0.21554002 -0.095010385 -0.14388761 -0.10008775 -0.062630884 -0.076813765 0.12534043
74 0.07679589 -0.06903755 -0.015625004 0.088784896 -0.01848839 -0.055640116 -0.16392066 -0.19004057 0.2950794 -0.16254193 0.039380196 -0.04179124 -0.13786344 0.2200461 0.017913863 -0.04161724 -0.33550403 -0.31371033 -0.024830338 0.039820522 0.095968746 -0.034357727 0.13049185 -0.15826072 -0.1105383 -0.0063850083 0.10450046 -0.26573396 0.037076175 0.06520947 -0.065700196 -0.08505616 -0.09098859 0.20886193 0.1317572 0.10099029 -0.06307843 -0.09485103 -0.16961464 -0.06445602 -0.32750022 0.107256785 0.09358696 -0.2290409 -0.09431278 -0.12868854 -0.040464412 -0.037611086 -0.0129364235 0.13374156
75 0.16401358 0.04303246 0.024606606 0.13897753 -0.11867318 -0.060166094 -0.078186914 -0.16364048 0.21678 -0.14357696 0.13212216 0.020242393 -0.24970071 0.09317479 -0.024213053 -0.07835689 -0.27105257 -0.17325598 -0.20010652 0.009338903 0.11946215 -0.08782228 0.050026402 -0.11304966 -0.21126866 0.045310818 0.22030167 -0.23567475 0.029348165 0.09436971 -0.048391584 0.027195042 0.010804672 0.14968154 0.13827415 -0.020926611 -0.02917652 -0.069748946 -0.23258162 -0.051731657 -0.2817725 0.071759626 0.13960283 -0.33832973 -0.101108015 -0.17493226 -0.0763731 -0.14616314 -0.0315805 0.030351872
76 0.072262704 -0.060854133 -0.06908923 0.07630673 -0.062321894 -0.100597955 -0.1429159 -0.17753209 0.2559807 -0.16769025 0.035942573 -0.073356755 -0.23080043 0.19375956 -0.030462852 -0.07987894 -0.33712983 -0.28190607 -0.084579274 0.033801332 0.08717163 0.02617313 0.102450795 -0.19839074 -0.11518692 0.01472225 0.10297862 -0.24398233 0.086919494 0.07253115 -0.0699919 -0.038334765 -0.14522488 0.16534054 0.10860518 0.10747364 -0.056168612 -0.12001516 -0.14219317 -0.048710335 -0.3356545 0.056700073 0.13940956 -0.20210612 -0.08200375 -0.15845375 -0.075964585 -0.0626057 -0.057414606 0.14431249
59 0.059604768 -0.034081772 -0.013847737 0.10318293 0.0036844718 -0.09411939 -0.09433515 -0.17277703 0.27396032 -0.15413284 0.037134204 -0.06868109 -0.2176132 0.20747921 -0.0035442763 -0.09321684 -0.2965337 -0.24900514 -0.037740223 0.04307274 0.18707357 -8.74604E-4 0.11385968 -0.18549076 -0.12767266 -0.038634285 0.11385843 -0.22846286 0.041236825 0.08400191 -0.03251512 -0.12192883 -0.044772584 0.20152469 0.07678468 0.10717499 -0.016873762 -0.096798345 -0.1814674 -0.0919424 -0.3467841 0.07415694 0.10373789 -0.2577597 -0.10659854 -0.19297905 -0.044935476 -0.11535618 -0.038841356 0.1007918
58 0.07994249 0.0057972306 -0.0066381334 0.061474163 -0.027579004 -0.05197348 -0.111529246 -0.18102328 0.2219112 -0.1762046 0.035040148 -0.040716592 -0.22241491 0.23032963 0.007400607 -0.08301326 -0.32111725 -0.25606212 -0.04993523 0.08805714 0.1659372 0.016522156 0.12715131 -0.1695833 -0.09199028 -0.008548343 0.10853826 -0.2424125 0.051121138 0.0897553 -0.042572096 -0.09356495 -0.056814775 0.18857466 0.08201359 0.14488599 -0.018607203 -0.07729514 -0.18188053 -0.109821565 -0.3573706 0.09316882 0.05987571 -0.25989506 -0.057817902 -0.17274095 -0.14408487 -0.08254389 -0.04878458 0.08846977
57 0.09530623 -0.006290519 -0.038150255 0.08528647 -0.04772625 -0.040140256 -0.068529285 -0.22883047 0.25859588 -0.11888277 0.058284562 -0.06503005 -0.21128578 0.18559316 -0.008414395 -0.10148428 -0.30614677 -0.2224159 -0.059984576 0.050831955 0.17715006 0.065372944 0.110274054 -0.18780296 -0.12981157 -0.049314752 0.08143015 -0.2367276 0.07348245 0.06530409 -0.038282678 -0.073510736 -0.07175273 0.2090712 0.088588044 0.10921127 -0.012272257 -0.078124546 -0.19349194 -0.04481435 -0.35008797 0.13002454 0.09366591 -0.24294548 -0.094875515 -0.21184477 -0.06646863 -0.11353108 -0.06623338 0.12242702
56 0.10890302 -0.02033701 -0.027838873 0.12685886 -0.051961754 -0.052531533 -0.075613655 -0.13447408 0.24814413 -0.16740951 0.0117593715 -0.07393204 -0.21355885 0.1899201 0.029654304 -0.11924079 -0.3277086 -0.2735856 -0.0680025 0.12137177 0.12887828 0.0531283 0.08357058 -0.16425969 -0.12439601 -0.0914474 0.09355705 -0.21421537 0.060821448 0.057159778 -0.030914674 -0.0772201 -0.010811167 0.18498227 0.11945472 0.10321785 0.014782206 -0.06803893 -0.18572381 -0.045775853 -0.3616517 0.08324432 0.05292655 -0.30192918 -0.069444224 -0.16728869 -0.08280949 -0.1195551 -0.090039946 0.088397175
55 0.10180928 0.04191819 0.015698666 0.18295492 -0.10556485 -0.015569569 -0.08094089 -0.21250828 0.26314533 -0.11956768 0.03170517 -0.082109824 -0.27057126 0.14163709 0.04280907 -0.0636768 -0.2887458 -0.1801252 -0.1093318 0.036362685 0.12996778 -0.011775837 0.04687249 -0.12924667 -0.1924674 -0.045010407 0.1863674 -0.25164914 0.06202274 0.06711779 -0.025371272 -0.02066491 -0.011209524 0.16364002 0.11130383 0.07032449 -0.013122611 -0.07243764 -0.20722523 -0.08437485 -0.27806908 0.09865163 0.09450877 -0.32995024 -0.07964216 -0.19214913 -0.072280504 -0.17718081 -0.059785206 0.03174343
64 -0.031854115 -0.1906831 -0.09960043 0.10937317 0.009998763 -0.0749307 -0.12707692 -0.24512719 0.22639379 -0.038250387 0.02161158 0.04933024 -0.15811835 0.06925979 -0.04362625 -0.064274356 -0.1105044 -0.12012973 0.104084864 -0.028155722 0.16788165 -0.1111853 0.12975192 -0.16408089 -0.035454974 0.01944388 0.1522836 -0.13802165 0.02181231 0.11421477 0.16660735 0.001942247 0.25130653 0.14229076 0.10289343 0.13995188 -0.22075643 0.039083906 -0.02564622 0.025704188 -0.20971341 -0.015943194 0.12191046 -0.23315519 -0.011188295 -0.2806056 -0.11237013 -0.38500383 0.17000057 0.11125814
65 -0.086734205 -0.16946314 -0.1597378 0.13069163 0.0070418245 -0.130348 -0.15651692 -0.2538652 0.2270909 -0.1520535 0.23361692 0.055101305 0.036202375 0.094785124 -0.105816916 -0.12880091 -0.28082737 -0.012956742 0.09252046 -0.16200097 0.009780722 -0.11708849 0.09227062 -0.06080567 -0.13273598 0.12825732 0.039263178 -0.083299145 -0.12816899 0.12117337 0.19125198 0.007816984 0.2641317 0.23059168 0.05683035 -0.010853973 -0.07752844 -0.025337119 -0.13750717 -0.18453158 -0.1406687 0.060492255 0.15458213 -0.23946914 0.037075605 -0.21611002 -0.062084816 -0.19026834 0.06292637 0.109365866
62 0.08505084 -0.009774131 -0.041603446 0.09544958 -0.061486967 -0.09445091 -0.115618534 -0.19544463 0.26216063 -0.12813678 0.05829751 -0.0908216 -0.21002384 0.1900466 -0.056761947 -0.073867045 -0.3514042 -0.2655642 -0.037043497 0.05684689 0.1776004 0.011039159 0.065350935 -0.17522642 -0.10930533 -0.006711177 0.08876794 -0.2541256 0.07948978 0.019192439 -0.06326507 -0.06625494 -0.060333643 0.19349258 0.08485236 0.12971725 -0.031078111 -0.09210725 -0.19109295 -0.090080194 -0.34160748 0.08062578 0.09863595 -0.24319105 -0.07917206 -0.15964653 -0.05332844 -0.10915278 -0.021459395 0.09407531
63 0.11339429 -0.0097046755 -0.018264936 0.08937896 -0.08953001 -0.054338578 -0.1000574 -0.18934286 0.2966417 -0.14769997 1.0132989E-4 -0.121981 -0.2223453 0.18610193 -0.023029275 -0.07260668 -0.28558257 -0.2775518 -0.04899317 0.058177948 0.1713153 0.025858743 0.12064953 -0.1976759 -0.11605881 -0.041570626 0.12235145 -0.2005449 0.06429136 0.041071504 -0.033197183 -0.08650131 -0.070013285 0.21852985 0.10506483 0.10269677 -0.02207653 -0.07512622 -0.18399565 -0.08445713 -0.30871224 0.09857631 0.11203157 -0.264181 -0.077299476 -0.19468732 -0.012954652 -0.106047176 -0.032443494 0.09717798
60 0.1358419 0.08489015 0.06358965 0.2345522 -0.1522938 -0.027165135 0.021131204 -0.123391554 0.1392907 -0.008619417 0.18897086 0.027613232 -0.3145538 0.017922368 -0.031039206 -0.039835386 -0.16974193 -0.11811712 -0.1852097 0.076721266 0.11042578 -0.022091135 0.03621737 -0.04663545 -0.29979405 -0.018198002 0.16803287 -0.28018537 -0.015554789 0.09889802 -0.06071092 0.07020175 0.07338676 0.14498895 0.14618056 -0.035396766 0.024711112 -0.0796086 -0.14969502 -0.06482313 -0.2128115 0.11720268 0.11529246 -0.36060917 -0.08117003 -0.20147201 -0.10484251 -0.23830542 -0.032719128 -0.047266368
61 0.015264425 -0.014430226 -0.0036198513 0.11535547 -0.039483618 -0.03749044 -0.11024989 -0.1564069 0.26844826 -0.16211665 0.017736088 -0.081684366 -0.21093518 0.22970106 0.025633717 -0.07594748 -0.32013604 -0.2896963 -0.049676053 0.0822947 0.12404603 0.04296875 0.1054172 -0.18564449 -0.08091579 -0.012642689 0.14784771 -0.22831966 0.063756384 0.037537362 -0.042131327 -0.079332955 -0.0749617 0.19540651 0.09051327 0.11761194 0.01344672 -0.09527321 -0.19864184 -0.12749185 -0.32607403 0.048258882 0.051119607 -0.2694205 -0.09384384 -0.18271124 -0.079773866 -0.070598215 -0.0365208 0.12416519
49 0.084716134 -0.09713576 -0.07012672 0.10506516 -0.036266606 -0.0076468857 -0.053478036 -0.25275195 0.21781407 -0.14091648 0.05236398 -0.04651128 -0.17128927 0.18090215 0.020904042 -0.122998774 -0.31726387 -0.23462307 -0.036037117 0.03558111 0.24528676 8.249875E-5 0.12487654 -0.14175017 -0.057659768 -0.041949652 0.1276433 -0.23177163 0.030837402 0.0626587 -0.023148607 -0.049192008 0.035107277 0.17203379 0.14313711 0.13075729 -7.538758E-5 -0.054753076 -0.13923971 -0.12245171 -0.35927287 0.051114555 0.08729805 -0.2766499 -0.13239408 -0.17552899 -0.089552306 -0.12485765 -0.06658231 0.12002769
48 0.140351 -0.0012016137 -0.07934349 0.16114204 -0.1424904 -0.023506252 -0.06101643 -0.12553017 0.2381641 -0.0050523425 0.14379527 -0.09385861 -0.2498201 0.1636555 0.015306739 -0.02135899 -0.27750126 -0.21058147 -0.045273602 0.0944324 0.14407243 0.08131426 0.07020328 -0.18587062 -0.19302888 -0.060850203 0.11599447 -0.27943945 0.04861603 0.1435227 -0.06417028 -0.009254612 -0.010171289 0.23885326 0.1040536 0.11273378 0.05943258 -0.12719443 -0.123569004 -0.072257645 -0.27375343 0.13033417 0.11633001 -0.27989775 -0.13471842 -0.1039579 0.038518943 -0.17969339 -0.026039038 0.068168215
45 -0.046486545 -0.18771158 -0.060034376 0.14441732 0.085566714 -0.058867432 -0.10037467 -0.30162674 0.10700991 -0.08265177 0.08530368 0.055660047 -0.2182542 0.0727015 -0.07505378 -0.09345536 -0.098732345 -0.052029397 0.07755586 -0.0034034601 0.18550195 -0.13792665 0.10772407 -0.17770143 -0.06437067 0.07467488 0.12447186 -0.23358794 -0.062362123 0.15046464 0.13635635 -0.0019040898 0.16813365 0.07229953 0.08072668 0.11026694 -0.13817255 0.010259105 -0.11413119 0.08826918 -0.23675095 0.02577282 0.10243838 -0.22761633 -0.0159371 -0.28155077 -0.08229079 -0.3942956 0.15421447 0.11664155
44 -0.0795956 -0.17367007 -0.059797823 0.120214984 0.09282425 0.02206043 -0.068281725 -0.31216305 0.15971415 -0.0841599 0.025415722 0.022575015 -0.26822847 0.046116095 -0.06602026 -0.02978861 -0.097316235 -0.08617472 0.00905334 -0.029985815 0.15803158 -0.13354526 0.10897932 -0.23119743 -0.009623551 0.08652138 0.099994875 -0.19359173 -0.043736927 0.093286194 0.16528702 -0.036044348 0.14113708 0.10093636 0.0868843 0.24032126 -0.10866543 -0.012810559 -0.053419616 0.14536041 -0.22290735 -0.046441734 0.09160163 -0.22258653 0.03442346 -0.26301542 -0.052859712 -0.3866229 0.15138225 0.119152255
47 0.11027021 -0.033195935 -0.11808359 0.072356336 -0.08712589 0.016876224 -0.050938036 -0.19421539 0.21224515 -0.071835145 0.04206151 -0.09318659 -0.2377509 0.17956096 -0.00886997 -0.1007257 -0.30736846 -0.2659039 -0.043615464 0.052205157 0.20584714 0.07106821 0.092272304 -0.17815699 -0.10447338 -0.0718483 0.092663 -0.26969764 0.047243856 0.11818084 -0.03500474 -0.09365972 -0.038452853 0.21829863 0.12530188 0.12012284 0.0126265865 -0.07079853 -0.15710434 -0.108807325 -0.3182636 0.116828136 0.06424523 -0.25232804 -0.14475292 -0.15440434 -0.03960991 -0.1312077 -0.051069364 0.093565136
46 0.034081873 0.0039750505 -0.078119166 0.10951309 -0.08420695 -0.049539126 -0.09009737 -0.24325001 0.2389343 -0.07184721 0.02433602 -0.04442624 -0.20595893 0.19319947 0.026358224 -0.07291176 -0.35319996 -0.24554268 -0.03480221 0.11267702 0.18006143 0.022293108 0.10785887 -0.10252012 -0.16863768 -0.032719467 0.08972534 -0.20652577 0.0762861 0.11962365 -0.07601123 -0.09323737 -0.021067133 0.21598004 0.085387364 0.048407104 0.0083542885 -0.11301465 -0.18148665 -0.0721401 -0.3745257 0.07592538 0.044963226 -0.25199285 -0.09059801 -0.16393158 -0.07326645 -0.14333251 -0.033072703 0.056058656
gillette 0.28786728 0.09584731 -0.13276286 0.05114436 0.092343286 -0.030152114 -0.19241105 0.08608235 0.29330114 0.23682833 -0.099143974 -0.11501817 0.0016804971 -0.036141124 0.0046371426 -0.11920389 -0.28072745 -0.092996016 -0.19442917 0.1093407 0.0717625 -0.034745984 -0.20755105 0.18339182 0.13389227 0.1790476 0.10749746 -0.14855988 0.10006184 -0.1115374 -0.034512762 -0.13507687 -0.045154057 -0.20106746 -0.06350267 -0.08058047 0.16119246 0.06882849 0.16369997 -0.05467264 -0.14117475 -0.03004684 0.13817036 0.03951908 0.23586772 0.0404063 -0.036307327 0.1453136 -0.20037906 0.180286
51 0.11815751 -0.017830968 -0.060970638 0.10096893 -0.026005149 0.035470165 -0.035486236 -0.24234474 0.19847879 -0.17180508 0.05260323 -0.055820245 -0.18007757 0.1865104 0.04021608 -0.148377 -0.3087086 -0.22762996 -0.06496486 0.029299857 0.21646677 0.038184486 0.07539446 -0.15274069 -0.07819579 -0.017132731 0.13030122 -0.28745294 0.10491436 0.057227023 -0.04798472 -0.14169978 -0.030621363 0.16848631 0.10477892 0.1294133 -0.0014283182 -0.05573273 -0.19672592 -0.13004555 -0.32037023 0.10781915 0.040669624 -0.28170994 -0.0659738 -0.14285474 -0.10307366 -0.12081315 -0.053564392 0.09022325
52 0.11472644 -0.01684209 -0.0040584225 0.096088596 -0.04622647 -0.02334994 -0.062447578 -0.17028964 0.27451512 -0.13584845 0.07017429 -0.09606866 -0.18546836 0.15073828 0.09327059 -0.11312082 -0.31702632 -0.2998633 -0.12372831 0.055474896 0.11007773 0.069078684 0.08237908 -0.12004095 -0.15127149 -0.0762342 0.08895309 -0.2718264 0.06660683 0.020598367 -0.011198853 -0.033261746 -0.036476403 0.23051848 0.084197685 0.15029953 -0.059755966 -0.080826394 -0.12689485 -0.1443488 -0.28585026 0.12255077 0.053405493 -0.30376634 -0.122200936 -0.15227324 -0.103688955 -0.07379075 -0.087522745 0.08144628
53 0.07237578 -0.019385902 -0.037366617 0.06899717 -0.05936875 -0.04671333 -0.06566547 -0.20758604 0.26115865 -0.16076432 0.05416542 -0.084308945 -0.22282884 0.2174902 0.01144409 -0.09524263 -0.30787084 -0.25825337 -0.03572792 0.07208555 0.20036519 0.029153641 0.11021269 -0.15966767 -0.10031309 -0.02173647 0.0576004 -0.23705773 0.06259213 0.07996688 -0.028694361 -0.09932907 -0.011559103 0.17317457 0.09189826 0.11683797 0.027517082 -0.084783316 -0.16019304 -0.10804891 -0.37290716 0.101550914 0.06724591 -0.251418 -0.09913093 -0.15303148 -0.09217856 -0.14293408 -0.03755739 0.09508219
54 0.11781194 -0.011805222 -0.0702095 0.090649575 -0.094911054 -0.027813751 -0.06587531 -0.22458327 0.25778487 -0.05811949 0.053979795 -0.060900632 -0.25079966 0.15825228 0.004555988 -0.035218775 -0.3033267 -0.21618976 -0.040015288 0.05148757 0.21965235 0.009535341 0.07854066 -0.1719544 -0.11797724 -0.012830064 0.09320838 -0.28675628 0.10433057 0.090663925 -0.0539244 -0.02852787 -0.057504494 0.21117899 0.112286374 0.07582775 -0.0129374955 -0.13703035 -0.16789496 -0.077425346 -0.33680663 0.10251046 0.10238701 -0.24613538 -0.12411757 -0.15942268 -0.02554747 -0.14735106 -0.060012277 0.08079466
50 0.1727758 0.10583756 0.0250746 0.16197845 -0.19989274 -0.005331749 0.0098208245 -0.08116555 0.11475211 0.055534627 0.24981289 0.0371058 -0.26421374 0.03034942 -0.029633205 -0.050752375 -0.14459112 -0.09751759 -0.18896505 0.039594654 0.18447897 -0.07883289 -0.029638804 -9.320143E-4 -0.3092925 0.012098285 0.18617532 -0.2456117 -0.02476199 0.08265702 -0.108443245 0.07197861 0.073709905 0.085261844 0.13439462 -0.0883805 -0.015736395 -0.07860435 -0.18376952 -0.064915314 -0.18567014 0.11589268 0.093381464 -0.35697046 -0.1593516 -0.09556552 -0.12505612 -0.29978815 -0.010599945 0.001767804
99 0.13067855 -0.08613142 -0.059263345 0.095703855 -0.006562921 -0.05561846 -0.113283575 -0.1924463 0.27834588 -0.1538073 0.017976282 -0.045569412 -0.10045143 0.14301008 0.034653023 -0.22223648 -0.3781502 -0.15671115 -0.14175957 0.00574109 0.12195643 0.042333603 0.020880284 -0.13014336 -0.04680683 -0.09349638 0.1530797 -0.19991001 0.15397961 0.076959915 -0.1720854 -0.043929134 0.0098101655 0.1921923 0.058750715 0.090770066 0.0015220384 0.063991755 -0.10735762 -0.09556884 -0.32222074 -0.0026450502 0.18802081 -0.29750735 -0.081543736 -0.093040824 -0.0867528 -0.027849238 0.08929686 0.18755074
98 0.14749889 -0.115216844 -0.07261733 0.107639 -0.06977304 -0.012958975 -0.04330138 -0.14384218 0.3198313 -0.084333524 0.032700807 -0.03846926 -0.11338261 0.11399332 -0.017794894 -0.119684614 -0.4105571 -0.18146542 -0.08343985 0.05033447 0.12761138 0.04075801 0.090316825 -0.18507673 -0.038736925 -0.030602034 0.14538611 -0.14863479 0.22014141 -0.045087233 -0.15466484 0.08879194 0.07407105 0.24840838 0.10348461 0.047539037 -0.06922657 0.09882567 -0.08469383 -0.016533576 -0.2912766 -0.04422069 0.22156878 -0.29476795 -0.066584915 -0.11418298 -0.0046368693 -0.07524813 0.079331376 0.11984617
97 0.14544167 -0.085705884 0.032878123 0.094757244 0.0027876871 -0.080015324 -0.0681568 -0.21726823 0.2791548 -0.1692505 -0.029153971 -0.0031702968 -0.13764077 0.21784706 0.0025353644 -0.19401996 -0.3411763 -0.15431114 -0.094035365 0.08656982 0.10746164 0.012824541 0.040765453 -0.18349329 -0.049926113 -0.06298531 0.11588158 -0.22644146 0.14759775 0.03498714 -0.188872 -0.075955555 0.0071427412 0.22238374 0.08077022 0.09990721 -0.0046485723 -0.01574965 -0.10598703 -0.05301824 -0.34911013 -0.054436427 0.1385406 -0.266786 -0.089208454 -0.085836284 -0.06488186 -0.0026503887 0.051462505 0.18644038
96 0.085141 -0.058642887 -0.083412796 0.10582618 -0.013538881 -0.09761711 -0.06400504 -0.14083457 0.28073338 -0.081211366 -0.071384236 -0.04328602 -0.16843396 0.12515241 -0.0716866 -0.18723272 -0.3871017 -0.15905432 -0.07964306 0.052312773 0.11397924 0.03257551 0.09099015 -0.21140803 -0.06110394 -0.015645394 0.1062934 -0.2318147 0.1870241 0.032542232 -0.15433681 0.020883933 0.035341963 0.25108877 0.11940573 0.08439997 -0.009604488 0.006655222 -0.10752079 -0.058928568 -0.26641974 0.01307816 0.23757349 -0.29036075 -0.09394207 -0.12106521 0.033565156 -0.02603851 0.06244928 0.1960004
95 0.17211 -0.005184773 0.014858875 0.16883259 -0.04549697 -0.040939055 -0.06385227 -0.09406467 0.2634502 -0.21098344 0.05403646 -0.013443256 -0.19644533 0.14771187 0.009390673 -0.07486947 -0.40972298 -0.15268494 -0.1415976 0.02353718 0.11991948 -0.012842073 0.10886787 -0.12157112 -0.10908528 -0.021674495 0.20042104 -0.17230828 0.09148831 -0.022608288 -0.10497862 0.03761446 0.08238727 0.23268315 0.1584404 0.0766987 -0.10775804 0.08668498 -0.09083033 -0.06582474 -0.24162827 -0.012326835 0.15749854 -0.37262094 -0.085096166 -0.08601707 -0.038243953 -0.09287641 0.11067338 0.050291236
94 0.1236196 -0.05578856 -0.005362991 0.053018246 -0.026254166 -0.097685516 -0.10277247 -0.19276604 0.3431214 -0.20234253 -0.06266216 -0.058545366 -0.12961447 0.21138246 -0.009048411 -0.17128935 -0.3837361 -0.15835798 -0.08861685 0.026652113 0.09061773 0.01893504 0.09250258 -0.15211065 -0.07881746 0.02025924 0.0980168 -0.20383266 0.11484515 0.025894955 -0.1390576 -0.070867874 -0.03263763 0.21884628 0.081777826 0.09348055 -0.029360587 -0.021415072 -0.08218921 -0.05741836 -0.33096978 -0.028418723 0.11432159 -0.24571048 -0.12798418 -0.15708327 -0.05848128 0.021538243 0.0073385723 0.20538388
93 0.10299459 -0.084895074 0.04599798 0.038177952 0.010176523 -0.04812316 -0.094196096 -0.18884355 0.3185184 -0.14334255 -0.015584801 -0.086422816 -0.14545275 0.19906121 -0.039747257 -0.1949301 -0.36259642 -0.21414897 -0.038147047 0.036735784 0.089066446 0.010971307 0.09228821 -0.14676397 -0.05348706 -0.049287044 0.11888875 -0.2511944 0.14698496 0.08453769 -0.14973159 -0.018083224 -0.025979597 0.15482096 0.08703796 0.11761838 0.058390133 -0.0123065235 -0.0685456 -0.06894183 -0.32080045 0.04425794 0.15984295 -0.29161003 -0.14708391 -0.080554344 -0.008894142 0.061914757 0.08379851 0.18902822
92 0.13042155 -0.041243494 -0.026846342 0.10513622 0.0067634275 -0.072731026 -0.092590764 -0.18364964 0.31946522 -0.19014364 -0.03769092 -0.074527666 -0.14231731 0.19433878 -0.025268847 -0.13243222 -0.3415419 -0.22657526 -0.07209803 0.05502559 0.11198215 0.028160093 0.079310656 -0.19014725 -0.08554651 -0.016510077 0.12033601 -0.224922 0.116241835 0.046970997 -0.12049226 -0.030967504 -0.030812545 0.17900379 0.08217352 0.055724517 0.013898962 -0.019115873 -0.10898241 -0.08630409 -0.35165942 0.024968928 0.19854847 -0.2895238 -0.08129644 -0.13576806 0.022382248 -0.009147321 0.029190265 0.16702557
91 0.09091632 -0.033674132 0.013475336 0.0495051 -0.021251777 -0.12444679 -0.11246028 -0.22317426 0.37797084 -0.15903305 -0.03252034 -0.08122622 -0.17684217 0.16799806 0.009331221 -0.101357505 -0.37383717 -0.22261013 -0.06492151 0.0936929 0.08206055 -0.007852451 0.06291383 -0.20633446 -0.09595579 -0.05045661 0.11453478 -0.1986694 0.055647913 0.018216852 -0.07879992 -0.017879678 -0.052677907 0.18739419 0.06817112 0.08600617 0.03845861 -0.0464453 -0.14651912 -0.12531295 -0.34324244 0.04659084 0.13070618 -0.18804371 -0.094869494 -0.13698281 0.010189215 -0.031021114 1.02861304E-4 0.20488013
90 0.17004211 0.023023352 0.06611318 0.21939698 -0.1994921 -0.013843853 -0.043141063 -0.15208293 0.1782635 -0.09458222 0.06714879 0.03816734 -0.28938922 0.0015981498 0.0023961468 -0.03643538 -0.24653722 -0.14364678 -0.22787914 0.091452256 0.054230597 -0.07809478 0.037910957 -0.11487334 -0.21234073 0.0061865137 0.17869882 -0.28167892 0.006331228 0.13452022 -0.05794612 6.563013E-4 0.08393874 0.14935768 0.12235928 -0.02219804 0.015196028 -0.06696667 -0.07581344 -0.096901916 -0.20287248 0.071130015 0.14957722 -0.38749608 -0.09379176 -0.21007498 -0.07189803 -0.18570009 0.039436974 0.021677084
88 0.12614296 -0.060645103 -0.039933406 0.055885315 -0.100624 -0.06355751 -0.15517545 -0.20831938 0.34293085 -0.08381734 -2.755069E-4 -0.052132644 -0.19118297 0.07159427 -0.08287302 -0.060300495 -0.30624515 -0.25273785 -0.07438532 -0.018823765 0.1322828 0.037134327 0.07437104 -0.17331116 -0.11663518 -0.036562324 0.11674746 -0.23820582 0.14448398 0.054984637 -0.098284036 0.034710396 -0.063035645 0.22483638 0.041088313 0.083811805 0.0060283844 -0.030850565 -0.12955141 -0.06946146 -0.31541428 0.07111491 0.20550124 -0.25212276 -0.09486307 -0.16013688 0.035354387 -0.08173749 -0.033133015 0.19133267
89 0.09282514 -0.07705145 -0.024650253 0.14482266 0.057610422 -0.09892006 -0.13202177 -0.24942206 0.3233137 -0.12557355 -0.01170615 -0.047457807 -0.114777036 0.18790674 -0.02097566 -0.15297808 -0.31943038 -0.25153875 -0.073505454 0.045647874 0.12612182 -0.049978368 0.0435533 -0.15464224 -0.08116933 -0.024790913 0.08351152 -0.2176482 0.048979577 -0.023108905 -0.054215025 -0.05443104 -0.0044986266 0.23513405 0.05620508 0.1712144 -0.011414072 -0.03890474 -0.10889773 -0.10062364 -0.3161253 0.07176259 0.15628006 -0.24123962 -0.100956164 -0.17679118 -0.060279433 -0.033016905 0.04010284 0.20449634
revolving 0.10113508 -0.06563265 0.013052275 0.24639581 -0.10794605 -0.121403225 0.011785417 0.018426454 -0.08094305 0.33998704 -0.047989782 0.060113437 0.061403558 -0.26297587 0.136097 -0.3187766 0.044587754 -0.069331616 -0.34702098 0.011619349 -0.1192301 0.14370875 0.06539862 0.02722395 -0.11161041 0.16138586 -0.008034351 -0.21189053 -0.03298084 0.02167629 -0.0038162707 0.16121623 -0.2877178 -0.10306012 0.14533211 -0.13285856 -0.033862766 0.07403904 0.07492552 -0.10953276 0.08668671 0.062061932 0.04584494 -0.09794139 -0.026099117 -0.049209043 0.017932447 -0.0012474227 -0.27365223 -0.20132494
marion 0.030129572 0.036006317 0.09813095 -0.04849167 -0.06451564 0.09007822 -0.061056506 0.26973665 0.1977816 -0.10981113 0.027110167 -0.23007141 0.028418886 0.11387861 -0.07116771 -0.16072 -0.118837714 -0.19877653 -0.0032167274 0.1099426 0.013124874 0.100880854 0.097448364 0.23324622 0.23317029 0.13047329 0.20497178 -0.14788899 0.041386105 -0.081081234 0.17331651 -0.16324216 0.049454015 -0.09642726 -0.11891734 -0.035012893 -0.0335543 -0.16625151 -0.108545884 0.07507698 -0.26996234 -0.072048165 -0.2308092 0.064004295 0.25537995 -0.05162214 -0.1289985 0.0113479495 -0.330596 -0.06799574
marine 0.13769351 0.103362024 0.053108003 -0.16707271 0.08258824 0.05584456 -0.08532959 0.07017705 -0.19441591 -0.0069067017 0.3811689 -0.16157137 -0.11915576 0.13787231 0.03249543 0.0487752 0.022373203 -0.17903478 0.13287391 -0.18319216 0.010576416 -0.15207464 0.21549627 -0.19029336 -0.16842927 0.18494631 0.17234349 -0.13853191 0.18004908 0.013374056 -0.030395022 0.075401835 -0.182012 -1.11669055E-4 -0.124573074 0.14294586 0.26756278 0.024353852 0.27034417 -0.013172726 -0.09776183 0.18651077 -0.09757063 -0.022721898 0.1338147 0.10410019 0.047696333 0.14164186 -0.014660949 -0.10519913
warehouse 0.24940182 0.07823244 -0.15052775 -0.019537495 0.18068394 -0.16832793 -0.06517402 0.1958236 -0.22058359 0.19584432 -0.02909067 0.07052144 0.153883 -0.047229216 -0.010223945 -0.13768055 -0.17815429 -0.29158932 -0.28207952 0.11102464 0.18691824 -0.09900737 0.14417468 -0.09678768 0.18561722 -0.01675345 0.07944734 -0.25125027 -0.007973172 -0.03627102 0.07554122 0.118182994 0.04035726 -0.14252181 0.026399195 -0.14791854 -0.039924946 0.027090931 0.19274995 -0.17081243 -0.024573484 0.033495456 0.10442198 0.09187183 0.16346921 0.13650908 -0.07576902 0.059127815 -0.17612845 -0.19651872
divestitures 0.12843025 0.007815868 -0.1388374 -0.031804565 -0.10797519 0.105009034 0.18459505 0.021067765 0.11956759 0.1434042 -0.02534883 0.33008224 -0.041639145 -0.10807449 0.16130361 -0.10830581 -0.07856705 5.797349E-4 -0.19794363 -0.07454093 -0.11220834 -0.33132473 0.031731732 0.05595464 -0.072492465 0.21154812 0.21711452 -0.061277818 0.040502906 0.0048582647 -0.029464768 -0.024527768 0.13710038 -0.16260636 0.11090074 -0.049033955 0.11797218 0.32766485 -0.095678955 -0.17475556 -0.0077449656 0.07943191 0.063038364 0.04820503 0.23406683 0.13110456 -0.21822764 0.12205484 -0.24073456 0.053364027
economy 0.097704746 0.12734576 0.045305554 -0.017163377 -0.29401067 0.032572236 0.32961586 -0.05968251 0.16596888 -0.055414956 -0.10230296 0.116302684 0.046363067 -0.08395282 -0.033967435 0.004306963 0.14572287 -0.121417224 -0.032992415 -0.051766247 0.06368683 -0.3523382 0.18109828 -0.16379356 0.15896097 0.015700974 0.23221569 -0.07717823 -0.09360812 -0.17711939 -0.030575216 -0.026281955 -0.05478034 -0.19151624 0.16558862 -0.16207023 0.12810266 0.03565135 0.030566502 -0.25003314 0.10148215 0.15501557 -0.070825 -0.25732166 0.06746615 0.17101704 0.010934483 0.10704449 0.002137343 -0.16443034
regret -0.32849255 0.036229108 0.20925905 -0.0580076 -0.09569941 -0.119737245 0.015184182 -0.06028356 0.14885782 -0.11838746 0.12320077 -0.024755307 -0.049598094 -0.15852375 0.08135067 0.05584063 -0.11570286 -0.04129237 -0.023993583 -0.02641031 -0.055829976 0.12915283 -0.08063382 0.12630568 0.08925643 0.00916239 -0.14482324 -0.04205701 -0.23593342 -0.15240736 0.120730855 -0.24138477 -0.18512873 -0.054999482 0.22537902 -0.30539784 0.2613735 0.07511992 -0.0045083957 0.0024769867 0.1139647 -0.16008668 0.19555928 -0.00859498 -0.18290111 0.24677059 -0.22583903 -0.07440105 -0.049532335 0.014416086
ge 0.047738787 0.107015535 0.14033195 0.12125863 0.005360162 0.070047356 -0.058780327 -0.0375456 -0.1616326 0.037354 -0.28971222 0.004187246 -0.11596008 -0.1451332 -0.13244341 0.008636123 -0.13022846 0.054469835 0.07941234 -0.024758374 0.21322441 -0.115879185 0.068965726 -0.2663935 -0.31615075 0.10903164 -0.031669084 -0.08448552 0.16152795 0.060019474 0.015534885 0.047820408 0.023085598 0.31171677 0.17148107 -0.10207432 -0.15283038 0.22256428 -0.19597834 -0.100311086 -0.08406571 -0.21958824 -0.011396119 0.12876463 0.17824359 0.22124189 -0.09715377 0.1345397 -0.14169131 -0.07479601
ga -0.1415545 -0.03140995 -0.10010996 -0.12786421 -0.2195028 0.082864255 -0.08692522 -0.15333465 0.12062224 -0.056482013 -0.1351425 -0.1690667 -0.19634525 -0.13900892 -0.13309039 0.062183943 -0.28220963 0.176826 -0.0063076494 0.11281375 0.023017162 0.049801603 0.06830218 -0.15727355 0.19212523 -0.28560916 0.034078628 -0.24327955 0.20765908 -0.0010221652 -0.23274966 0.03890836 -0.019695356 0.14435281 0.084270574 -0.049624104 0.034439735 0.19926159 -8.4364956E-4 -0.20280468 -0.17029418 -0.009801215 -0.26258364 0.13009511 0.0986881 -0.011675616 -0.2179596 -0.017292244 -0.054507945 -0.016890284
gy -0.16942444 0.020545568 -0.14333099 0.07983103 -0.13053957 -0.034277778 0.052736707 -0.18770197 -0.14563821 -0.03681713 -0.41697556 -0.053581797 -0.12787601 -0.23769817 -0.24234164 -0.13598455 -0.03739955 0.22474249 0.16260794 0.036354184 0.13479212 0.038381357 0.13243796 -0.012418846 0.041925564 -0.13763261 0.11321341 -0.14129384 0.16254234 0.03683928 -0.07367421 -0.014873459 0.11972915 0.10461966 0.104241036 -0.15562809 0.011314672 -0.060436122 -0.04313824 -0.2039641 -0.21031825 -0.16771686 -0.09296864 0.29603323 0.15350989 0.06939602 -0.060174227 -0.06005834 -0.11718071 0.09403133
ha -0.30692866 0.15362069 -0.06628475 -0.052280713 -0.06679794 -0.060039084 -0.06569696 -0.20687802 -0.040513452 -0.0076002516 0.047320988 -0.045049544 -0.030643014 0.090958096 -0.15287958 -0.17447022 -0.095453456 0.23018335 -0.17988814 -0.017968655 0.11566408 -0.17237519 0.17451505 -0.09097324 -0.06750238 -0.24148318 0.2058725 -0.24049927 0.20192225 0.097650565 -0.021637747 0.2105954 -0.035102453 0.26783836 0.08459899 -0.029081417 -0.036600966 0.043858327 -0.12858829 -0.07019949 -0.2293082 -0.18063015 0.016891304 0.0361501 -0.078464255 0.02841312 -0.030442083 -0.004347652 -0.120011315 -0.31821442
gm 0.34298494 0.2591648 0.011363535 0.07152261 -0.09229133 0.06054996 -0.06502368 0.0073497575 0.20974281 -0.06006714 -0.1571781 -0.00939538 -0.108525105 -0.18429573 0.16472095 -0.0638025 -0.062838174 -0.15150104 -0.1023066 -0.16069856 -0.03804616 -0.08238142 -0.055860437 -0.14011441 -0.04258484 0.1816321 0.31982517 0.026634676 0.11358529 -0.0012527102 -0.035699457 0.11170793 0.06467438 -0.08155972 -0.022209518 -0.1672272 0.011842739 0.28141496 -0.07478451 -0.13223885 -0.015239656 -0.114702895 0.3502221 -0.047998138 0.23786739 -0.030769808 -0.0739493 -0.008635145 -0.100000516 0.1799496
binding 0.13958982 -0.01751662 -0.26732337 0.31501156 -0.09958338 0.0056255134 0.112029284 0.09128488 -0.17119238 -0.059391018 -0.13262504 -0.17664826 0.029896338 0.07721677 0.14652857 -9.135818E-4 0.12897976 0.114396006 -0.1703873 -0.22269009 -0.016605843 -0.11740851 0.14316076 0.12315448 0.15602234 0.13545825 -0.121437326 -0.039470937 0.0044284137 0.16628516 0.023403946 -0.30401662 -0.22021051 0.247044 -0.12289133 0.13445267 -0.0042850566 0.12503722 0.0019144188 -0.18350051 0.0011277534 -0.06172017 0.0816633 -0.0051323865 -0.011247278 0.24839103 -0.04631934 -0.21656507 0.13152036 0.017647842
gt 0.21927372 0.076185554 0.11550983 0.07780603 -0.16573945 0.02176056 -0.09048475 -0.009123708 0.17718785 -0.03491108 -0.13302116 0.004502544 0.10980699 -0.15231454 0.18517321 0.020238321 0.058428697 -0.03055935 -0.037595335 -0.064522624 -0.09028006 -0.14725818 -0.16084626 -0.17200166 -0.03942846 0.19091539 0.13210535 0.013041917 0.19098039 0.055525694 -0.1392707 0.19168343 -0.068958305 0.055518165 -0.06098833 -0.06856788 -0.0035446372 0.13164195 -0.20337895 0.006494249 -0.05040658 -0.026392423 0.39206418 -0.099422604 0.3953373 -0.15071659 -0.014164307 -0.10116664 -0.24572474 0.17893374
du -0.14732446 0.12552594 0.28299382 0.17609227 0.06518571 0.08897637 -0.0055692983 0.04303044 -0.034944672 0.014084688 -0.17401151 -0.1409537 0.11103236 -0.014048328 -0.043280065 -0.035742387 -0.15540622 0.15481964 0.21552871 -0.06389852 0.16386859 -0.009291201 -0.012975631 -0.15155514 -0.14701173 0.18389335 -0.0014160012 -0.15907593 0.1406541 0.17968607 -0.08421214 0.028341427 -0.17593268 0.17671537 0.070490256 0.017593367 -0.16853423 0.034476463 -0.22088736 0.039499532 -0.1841067 -0.3364284 0.05535072 0.059116643 0.065075114 0.13726859 -0.10840032 0.21516086 -0.14459911 -0.27865064
ec 0.066072 0.005001293 -0.1807301 0.109031305 -0.007045468 0.06252092 0.2072797 0.051444612 0.15136461 -0.059971463 -0.0924557 -0.083223015 0.15540135 -0.1365297 0.059888203 -0.23082678 0.07250748 -0.06634718 -0.09047577 -0.1662365 0.163995 -0.051710468 0.068331584 -0.0011046131 -0.1644216 0.09824435 -0.019709429 -0.20260587 0.07645056 0.06254118 -0.09110701 -0.02998226 -0.11432943 0.36132953 -0.049246985 0.07132799 0.08755395 0.33165354 -0.036178056 -0.35480678 -0.13649368 -0.036641862 0.15501794 0.13324825 0.0025406734 0.16602914 0.11222135 0.1020268 0.15932454 0.22211003
de -0.22011468 -0.019191155 0.226366 0.07513028 0.08259253 0.11783431 -0.15185903 -0.05921065 -0.025786033 0.10150847 -0.20584458 -0.15513958 0.28638387 -0.2536098 0.06278636 0.15059336 -0.22936414 -0.0048631583 0.18625394 -0.13212246 0.14285381 -0.027324557 0.03647718 -0.04713688 -0.14395562 0.1766372 0.05777789 -0.08836425 0.098196425 0.20989528 -0.1364229 0.016193405 -0.009601706 0.19645347 -0.08675531 -0.071107246 -0.05476602 0.0011730945 -0.18737258 0.10253601 -0.22486547 -0.14152291 -0.05490553 0.0037373998 0.16497682 0.18801676 -0.067214295 0.0603047 0.07172443 -0.2866202
dd 0.018171584 -0.13862137 -0.12636743 -0.04070343 0.03170323 -0.017323755 -0.09597428 0.17244367 -0.07797764 0.07298663 0.017089253 -0.32051444 -0.12829897 -0.044263404 -0.18893549 0.1625723 0.049761187 0.060509585 0.029760918 -0.08224031 -0.008695703 -0.031881876 0.29056978 0.0032287007 0.06491067 -0.15437771 0.033698387 -0.26822054 0.4490409 0.19154137 -0.010435255 -0.020688169 0.03480159 0.21993813 0.22732127 -0.080986455 0.09918841 0.2483524 -0.11192649 0.026766527 -0.13166831 -0.06939033 -0.0024731369 -0.050990585 0.14024308 0.011874625 -0.0020945098 -0.09967807 0.0952501 0.17926234
di -0.24801596 0.14238697 0.19470274 -0.09383792 -0.06483046 -0.0027797325 -0.17000781 -0.06568369 -0.017347565 0.12864299 -0.32041276 -0.09016532 0.2770853 -0.25835326 0.17719127 0.0354573 -0.33238173 0.036743946 -0.11968563 -0.080095105 0.06858558 -0.06393174 -0.064276345 -0.1674292 -0.23252198 0.17173406 -0.019506881 -0.02757363 -0.012435974 3.2792083E-4 -0.085031234 0.058138084 0.03841019 0.22674006 -0.039232273 0.092632934 -0.065862864 0.028613176 -0.23658684 0.043843746 -0.21130578 -0.07294573 -0.058050383 0.16592975 0.06804743 0.07373394 -0.050083544 -0.050912637 0.1685639 -0.103678636
prevented 0.25228137 -0.162441 0.1744915 0.09972066 -0.24711952 -0.20576096 0.10540896 0.124477334 0.04622765 -0.04649902 -0.049318127 0.2034889 -0.05507011 -0.22508958 0.0047437507 -0.09776323 -0.18696454 -0.023189083 0.10056661 0.020858802 -0.084155604 -0.11502706 0.14794968 -0.017284585 0.067584194 0.060714386 0.03579608 -0.11061857 -0.113171116 0.13516371 0.2775373 -0.13730112 -0.3574079 0.0024895952 -0.0019218319 -0.09535885 0.23271833 0.002967584 0.15109763 0.10253778 0.15964817 0.028611405 0.06185899 0.0092911925 -0.02525653 0.10697048 0.0100650955 -0.10115221 0.32914388 0.0745197
dr -0.112016104 0.19304179 0.08782523 -0.015323941 0.22018886 -0.08725318 -0.07909465 -0.055507127 0.19349553 0.20165513 -0.030024873 -0.18651862 0.0074682767 0.06746755 -0.124878004 -0.10283782 -0.019427113 0.028639773 0.049557235 -0.025307134 0.021719342 -0.05613746 0.14085114 0.11005398 -0.106756836 -0.0068597863 0.010174306 -0.12356563 0.2527099 -0.15474606 0.10636319 -0.3354682 0.057424426 -0.10346469 0.20318589 -0.21673727 0.044856533 0.22059844 -0.070964105 0.014028113 -0.23543416 -0.17642036 0.04606517 0.34452483 0.24834073 -0.046467353 0.043564703 -0.11821003 0.023323653 -0.08997894
fe -0.07144839 -0.01850881 -0.020634757 0.10523525 -0.027353385 0.13946773 -0.29604793 0.039974105 0.09154344 -0.15156145 -0.2416858 -0.1992022 0.19582486 -0.2684299 0.06587591 0.097022474 -0.29668307 -0.11991114 0.024487106 0.07487373 0.0895932 -0.05547431 0.14040954 -0.062570654 0.0892863 -0.011584703 0.18381411 -0.1848256 -0.0071876636 0.12325028 -0.11752788 0.1527511 0.040431444 0.10351077 -0.25941265 -0.025903152 -0.087095566 0.016737588 -0.026015865 -0.09008136 -0.13320142 0.04874932 -0.23465025 -0.027152508 0.17440055 -0.02410988 -0.30768496 0.067966625 0.15354627 -0.14654978
el -0.1816312 -0.06767578 0.031540148 -0.07912691 -0.083753645 0.15204579 -0.20237173 -0.16522652 0.09900148 0.0060055335 -0.1286404 -0.052314565 0.33427623 -0.32776436 0.062800884 0.103710935 -0.13690054 -0.026155949 -0.035021976 -0.030364249 0.012472417 0.020110391 0.077859096 0.022580517 -0.11917922 0.034282885 0.17231025 -0.2148558 0.034719948 0.1763275 -0.24606119 0.006683458 0.07341329 0.15655664 -0.25378954 -0.061224338 0.08011015 0.014596908 0.0012572828 0.22388732 -0.17524727 -0.064714506 -0.022342118 -0.0017350655 0.08238843 0.06596103 -0.22552828 0.025380546 0.083239935 -0.34810463
es -0.2643387 -0.056617115 0.17939542 -0.03831762 -0.08126189 0.13598871 -0.11081141 -0.028890679 -0.0681378 -0.016390553 -0.2182911 -0.14407197 0.19394924 -0.16379617 -0.024216915 0.13414326 -0.14480297 -0.002977357 0.07356884 -0.05566319 0.15204093 0.005556934 -0.006623742 -0.17458485 -0.11098396 0.10110192 0.044696517 -0.13892502 0.19147852 0.19218536 -0.2788343 0.018178003 -0.003274992 0.23343247 0.024058048 -0.062209424 -0.10320715 0.18796046 -0.14285555 0.063117474 -0.2833313 -0.17334391 0.08219056 -0.021564862 0.12397183 0.15134203 -0.059783317 0.07623949 0.15634099 -0.3179133
cb 0.023856893 0.0015273761 -0.23815028 0.09532743 0.200046 -0.19862111 -0.073904745 0.12936184 0.018028166 0.20685577 -0.023151185 -0.19664954 -0.10008733 -0.035981786 -0.01961719 0.16417597 -0.20100343 -0.009309429 0.14013311 0.010196825 0.07123191 -0.12020301 0.22338393 0.12352548 0.070300974 0.074387446 0.13974012 -0.05765008 0.29444507 0.060928185 0.14234287 -0.06317816 0.10039634 0.051265597 0.10116753 -0.017633332 0.23371102 0.24241495 -0.06500208 0.2158019 -0.29962808 0.051002637 0.07799704 -0.22610393 0.1771363 -9.257028E-4 0.020724133 0.14676365 0.07112439 0.15053613
ca -0.22042948 0.020822674 -0.03901585 -0.08045243 -0.020245908 -0.1370645 -0.3448774 0.07827822 0.09175129 -0.16557561 0.19596562 -0.14369605 0.010744319 -0.19620961 0.08780592 0.23339024 -0.16185613 0.1126872 -0.18334177 0.024954645 0.008403356 0.12968281 -0.07794029 -0.06032535 0.08393825 0.02567123 -0.059017435 -0.26569712 -0.3111783 -0.11906849 -0.08393453 0.0702749 0.1261996 0.15449437 -0.093736276 -0.21261209 0.17064808 0.1527945 0.028608551 0.16883904 -0.032322325 -0.21159554 -0.0033033886 -0.026373291 0.10039656 0.18790302 -0.13760811 0.015525408 -0.037489627 -0.10226371
bp 0.26968583 0.13335696 -0.054982062 0.002845066 0.035476837 0.009202241 0.055970017 -0.18409294 0.04322168 0.11350124 0.1774835 0.009350073 -0.10335061 -0.05893881 -0.11917381 -0.08272476 0.0022379502 0.16786148 -0.30296803 -0.13316339 -0.022085954 -0.29453123 0.07157654 0.124967255 -0.19776015 -0.05027582 0.1870909 -0.17786445 0.051238503 0.17472196 -0.20608513 -0.09779562 0.13312255 0.065835014 -0.03265141 -0.03948446 0.021177383 0.18700151 -0.120588265 -0.23706175 -0.18719278 -0.047120545 0.10942827 -0.10071517 0.229858 0.094990134 -0.2753537 -0.017637875 0.10170068 -0.094095975
ct 0.16936141 -0.030847382 -0.12894607 0.15913355 0.06165216 -0.15151046 -0.12746708 0.25787252 0.077191874 -0.02862673 -3.4180644E-4 -0.36339793 -0.22309019 0.012264384 -0.088850155 0.052446093 -0.27164543 0.089871146 -0.20293577 -0.17000066 -0.10077546 -0.13644534 0.30266953 0.08738658 0.019024275 0.026037889 -0.11831292 -0.20230879 -0.09442488 0.048595782 -0.086868346 -0.13516931 0.1319645 -0.014970274 -0.0020813392 0.15452982 -0.16744488 0.15759268 0.13754839 0.02846412 -0.18497092 0.03996275 0.088052414 -0.038899146 0.20223778 0.05976743 -0.039533753 -0.124735005 0.02028966 0.15897085
decided 0.19354768 0.015049318 0.16126694 0.06384135 0.16200528 0.016321095 -0.034040853 0.12086225 0.16763882 -0.08157658 -0.0739765 0.17806329 -0.139471 -0.12576887 0.26178223 -0.16343607 -0.036934372 0.04725078 -0.008757647 -0.06320843 0.05733542 0.054014143 -0.11708068 -0.06354186 0.1339237 0.025360499 -0.10382259 -0.11135871 -0.15552302 -0.04326714 0.32387996 0.010949493 -0.14443523 0.15780912 -0.023686 -0.39511433 0.3117577 0.06265818 0.061527506 0.21673734 0.07995223 -0.10091519 0.017362662 0.06346227 0.14266947 0.16075648 -0.14281535 0.019754877 0.19004421 0.06871289
cp 0.1292986 -0.019707365 -0.2224093 0.26748592 -0.05146885 0.03246125 -0.0021047741 -0.10761336 -0.10546037 -0.1687492 -0.07769478 -0.121718936 0.14442484 -0.10884164 0.056036968 0.10387695 -0.1484592 -0.020793011 0.022496833 -0.021227939 -0.029645162 -0.098266274 0.09720647 0.03540446 0.017044317 -0.09698926 -0.019375397 -0.25620502 0.19241288 0.15090851 -0.2935473 -0.05594079 -0.07926473 0.10765966 0.021069508 -0.26348835 -0.040883865 0.31888497 0.0017575411 -0.24047491 -0.27294895 0.043466043 0.0931785 -0.01456242 0.07924575 0.12270564 -0.18779288 0.11995421 0.217881 0.13170627
cd -0.22679964 -0.04179727 -0.1280005 -0.053056955 0.0028242965 -0.091725804 -0.08577675 0.4108963 0.17005214 0.15267098 0.03485023 0.20487243 0.04431098 0.013204897 0.1501941 -0.04603423 0.088337265 -0.009486875 -0.24377897 -0.100934066 0.012822072 0.17871095 0.13720316 -0.0905692 0.06436038 0.008227732 0.025168628 -0.07288925 0.20259495 -0.016383912 -0.36560655 0.08288302 0.0056831082 0.22012337 -0.025259018 -0.12689607 -0.16535145 -0.046568964 -0.03266559 0.16908135 0.002636233 -0.17257445 0.21464057 -0.06073525 -0.078134015 0.18346013 -2.553198E-4 -0.13770393 0.107316874 0.13395299
institutes -0.047910277 0.062812254 -0.06279282 0.015764883 0.07576017 0.094450936 0.18791008 0.16025387 0.1851304 0.0063394224 0.1633278 -0.011303158 0.085968986 0.15526114 -0.18451643 -0.049763087 0.08317135 -0.15581492 -0.00557314 -0.05238106 -0.04385673 -0.36333513 0.11136118 -0.31757537 -0.2344752 0.10631499 -0.21143089 -0.084257305 -0.11747529 -0.17434357 -0.21183018 -0.053633846 0.045296352 0.124248005 0.10571646 -0.08348101 0.051394336 0.20321684 0.07316216 -0.1816824 -0.074651964 0.19345304 -0.22934678 0.117362514 0.0026937986 0.074297376 0.022302927 -0.23483147 -0.037004076 -0.061187394
al -0.0762363 0.16569193 -0.09784198 -0.08845467 0.029091394 0.17576209 -0.088488795 -0.22999917 0.19690059 0.08733656 -0.09970095 -0.06836723 0.117404096 -0.017789526 -0.016553134 -0.036404084 -0.19718711 0.2291711 -0.08698216 0.04414453 -0.02622532 0.11042129 6.5059547E-4 0.06482527 -0.13208923 0.23321043 -0.029331913 -0.2677186 0.20251523 0.03711004 -0.004154715 -0.21009329 -0.08515453 0.1504687 -0.052457217 -0.02261954 0.12291055 0.18889564 -0.006045608 0.24175526 -0.18120298 -0.1938273 0.14596513 0.07354498 0.03980288 -0.09614544 -0.20990983 0.06522672 -0.010735321 -0.36392036
ab 0.06693009 0.006770707 -0.07463201 -0.108797096 -0.08204621 0.0928107 -0.1968194 -0.13371024 -0.014213231 -0.12952594 -0.17443344 -0.13899231 -0.18017234 -0.0030009684 -0.20098664 0.06239985 -0.114841916 0.23254587 -0.095513456 -0.04975811 0.05093895 -0.030678945 0.1550484 -0.17987593 -0.16916035 0.010896456 -0.020637115 -0.14012697 0.39612842 0.2394861 -0.027136918 -0.032098874 -0.03148018 0.18805125 0.103227034 -0.045968454 0.23964997 0.2850717 -0.022093419 -0.18014657 -0.1987437 -0.09337413 0.002904482 0.027260765 0.22123472 0.039315812 -0.12635177 0.024646655 -0.054913178 0.1384967
ag -0.0029515212 0.043312717 -0.11547467 -0.12999274 -0.006651167 0.087721005 0.015448797 -0.06304568 -0.13612652 -0.07560925 -0.21122612 0.04496474 0.06873655 -0.09484788 -0.08529056 -0.15951952 -0.023983879 -0.031884097 0.0053953687 -0.1781464 0.13130724 -0.100141786 0.14766069 -0.16258548 -0.21590337 0.12431686 0.18572661 -0.17734963 0.13482644 0.03924755 -0.10786157 0.101459496 0.15898617 -0.07224221 -0.053386495 -0.22442311 0.054190066 0.29849985 -0.21379916 -0.26941293 -0.13113868 -0.07916069 0.14293033 0.083095744 0.3138553 0.18122272 -0.08090175 -0.008330056 -0.019376315 0.27730346
nv 0.10321467 0.02086079 -0.067955844 0.06446109 0.106795035 0.08369277 -0.19972631 -0.0061258445 -0.013871493 -0.013030721 -0.14250116 -0.07487758 0.08194666 0.024190256 0.004445 -0.0726057 -0.15317066 0.10797469 -0.15500355 -0.2263574 0.040211722 -0.11666694 0.066240475 -0.082126275 -0.18533531 0.16113672 0.20976853 -0.30306485 0.069894 0.13050315 -0.26196945 0.117037356 0.0961684 -0.06303676 -0.15901746 -0.115172595 0.0075993133 0.24124484 0.013037137 -0.0930973 -0.0928321 -0.08303794 0.08539551 0.046663936 0.36017403 0.2019277 -0.2786202 0.11354857 -0.19157429 0.06487083
pa -0.1228998 0.046349317 -0.016884856 -0.010925423 -0.103684135 -0.12800443 -0.05145857 0.005718956 0.05561243 -0.40233946 -0.16207713 -0.052155122 0.088089675 0.111097425 -0.013071304 -0.11719741 -0.19468133 -0.037972853 -0.21427256 0.05175684 0.006961862 -8.8520977E-4 0.14520378 -0.12380841 -0.09093355 -0.16642201 0.16704112 -0.14687705 0.09028808 0.088767774 -0.025938144 -0.12072683 0.026473397 0.28578886 0.1002683 0.028602835 -0.054319143 0.060696986 -0.113737054 0.0091839945 -0.30278048 -0.19865888 -0.14095008 -0.044714503 0.15634498 -0.023380142 -0.35216135 0.1056197 -0.18624066 -0.15060858
pc -0.0016399494 -0.025243374 -0.12103432 0.13084847 -0.04501885 -0.103420675 -0.052133653 0.33451584 0.15898222 0.30121973 0.04838014 -0.15469174 -0.0747459 -0.07820803 0.13871436 0.08483773 -0.022729632 -0.1460844 0.115614176 -0.09491579 0.15770993 -0.07745348 0.18629757 -0.0032861957 0.071933635 -0.13672501 0.10282771 0.049498804 0.32148948 -0.19892578 0.014085318 0.07668757 0.2475601 0.01983578 0.121662445 0.026256334 -0.2084739 0.19546913 -0.10921642 0.17678979 0.080266945 0.02688804 0.24466135 -0.13308565 0.25124347 0.059980545 -0.030830802 -0.05146285 0.010033322 0.08322429
ll -0.37788484 -0.057226397 -0.0031626301 -0.10267521 -0.14023535 -0.13194871 -0.10262886 0.08090633 -0.084129 -0.1800839 0.040203515 -0.124084376 -0.0489724 -0.1474814 -0.16929105 0.0051407693 0.026672075 0.28692546 0.04171566 0.086936444 0.08250636 0.14804865 0.049249057 -0.0077084014 0.07828836 -0.25395203 -0.006371793 -0.23178883 0.044823796 -0.06760922 -0.099736735 0.06864466 0.028122174 0.08406362 0.08326159 -0.39566267 0.13747963 0.1020302 -0.10044359 -0.07678163 -0.16614835 -0.27874035 -0.018958269 0.08158542 0.13348025 0.22262143 -0.08195857 -0.07797314 -4.1925858E-4 0.039571214
lp -0.17028154 -0.01397252 -0.11836706 -0.12694964 -0.017937986 -0.14088297 -0.10347513 0.30989838 0.22486115 0.08375405 0.0618655 0.19463117 0.025044395 0.042589493 0.18711679 -0.069096945 0.14805166 0.036783684 -0.290572 -0.084336296 -0.039398722 0.16016577 0.19625093 -0.07605797 0.069195956 0.048596412 0.10561865 -0.14902826 0.18037708 0.029342048 -0.30916175 0.021890048 -0.05868789 0.119627416 -0.06904531 -0.24367107 -0.14689775 -0.094118215 -0.06447121 0.05560185 -0.016553544 -0.25809366 0.19797148 -0.033703703 -0.17624414 0.13206497 0.002329399 -0.06575738 0.08942467 0.16832553
owens-illinois 0.25928766 0.0860744 -0.06971231 -0.0138552375 0.07861839 -0.084259294 0.024974052 0.013824862 -0.051880237 0.104167946 -0.18363826 -0.035260458 -0.023471793 -0.105868965 -0.17932867 -0.22183572 -0.034381613 -0.24219334 -0.21529806 -0.09318199 0.16140954 -0.05189047 0.025032507 -0.09091473 -0.07514387 0.26944858 0.36252835 -0.049643725 -0.03334796 0.09876671 -0.062477507 -0.08773226 0.11351685 -0.21710297 -0.10328914 -0.13100228 0.0687542 0.31364053 -0.1985475 0.009443288 -0.018351408 -0.10886622 0.1251664 0.03416461 0.25129098 0.05452004 -0.14866081 0.15664753 -0.057550576 0.043638445
mm -0.11019032 0.07148347 -0.08678157 0.1498419 -0.15632863 -0.17541388 0.061315205 -0.08353175 -0.04258595 0.10585781 0.07177413 -0.09959303 -0.28174505 -0.12117863 -0.03448399 0.19201303 -0.059820563 -0.16830857 -0.16945344 -0.15014786 -0.1787174 -0.047572594 0.06575259 -0.09350601 -0.095745176 0.15552649 0.32359436 -0.12471156 0.118622705 0.1656784 0.014129914 0.19249095 -0.16292705 0.2019109 0.10135493 -0.007601012 -0.061968062 0.08699992 -0.17599355 0.10718228 -0.051176354 -0.011263949 0.18688385 -0.14122264 0.0756616 -0.26646954 -0.038904984 -0.27433023 -0.09209251 0.11253474
mo -0.15154368 0.04661589 -0.041761696 -0.16882604 -0.10668881 -0.033889256 -0.21292138 -0.08004904 0.010269691 -0.11960379 -0.14909801 -0.17502743 0.101969756 -0.14024067 -0.016421137 -0.07985585 -0.063630804 0.26115027 -0.18167241 0.03522005 0.1142771 0.024027048 0.07008504 0.0046280953 0.064122826 -0.071256146 0.15484186 -0.17538363 0.24308105 0.043628342 -0.16586258 -0.11145376 0.0543846 0.30491158 0.08174908 -0.25096953 -0.095863365 0.1981343 -0.05779498 0.05763139 -0.25654557 -0.20513274 -0.10860531 0.23473103 0.061173003 0.041468672 -0.18422993 0.09768688 -0.08462908 -0.18665254
mr -0.114403725 0.17268823 0.17777999 0.009233298 0.20879161 -0.16633348 -0.1319693 0.049624708 0.07860253 0.24336211 0.03514323 -0.14485279 0.07162498 -0.044991612 -0.008262865 -0.024671404 -0.07733532 -0.07339929 -0.08108949 -0.011349207 -0.0071856026 -0.037043776 -0.08508791 0.17359915 0.013743814 -0.07985525 0.048012804 -0.16602811 0.19117199 -0.056561735 0.16722813 -0.3791006 0.06701112 -0.19446968 0.27967694 -0.35528278 0.13046907 0.21693972 0.024666306 -0.018811757 -0.09777896 -0.09226266 0.063608885 0.24227594 0.14365317 -0.057152603 0.09267582 -0.01825605 -0.092538096 0.008005239
mt 0.13172658 0.1285646 0.14504406 0.14989884 0.116666116 0.0101838205 -0.07656262 -0.0230919 0.09142342 -0.108550474 -0.05369819 -0.1094798 -0.15994109 0.067043565 -0.11400459 -0.045419954 -0.08711679 0.10381347 -0.20179346 0.16747649 -0.13897137 -0.30667716 0.10873406 0.100744374 -0.04879115 -0.15399586 0.37854052 -0.34072807 0.2120362 -0.13531269 -0.13525146 0.16696987 0.022577623 0.07612922 0.03808847 0.056825794 0.059831128 0.0120603 -0.077802606 0.08712468 -0.26502696 -0.007915384 0.2189862 -0.055265892 0.11661503 0.011112886 -0.004869325 -0.149022 0.0028491302 -0.13903603
na -0.26805943 -0.034753192 0.009376815 -0.1709392 -0.058856007 -0.11423926 -0.13732003 -0.0046190885 0.02004764 -0.13283823 0.04680839 -0.15142955 0.06585781 -0.11431411 -0.0751742 0.07102047 0.17476232 0.3337131 -0.04368758 0.09110425 0.045792613 -0.06772883 -0.010696755 -0.16380742 0.058387093 -0.29701507 0.045151845 -0.2524265 0.14889207 4.1382315E-4 -0.21065065 -0.1196301 -0.061604824 0.2672218 0.1764617 -0.29994896 -0.058441218 0.2193663 -0.06870952 0.04497396 -0.09260149 -0.24110316 -0.0016564209 0.075081035 -0.0036059585 0.14638841 -0.019012418 0.036553845 0.033778664 -0.12554704
nl 0.048141256 0.21137507 -0.2104182 -0.08590492 -0.08890741 0.002731991 0.0671497 -0.24155626 0.23307706 0.20285217 -0.102491245 -0.19639128 -0.015269899 0.1340398 0.026450614 -0.27863938 -0.39533705 -0.016953552 0.23394541 0.17333731 -0.040352877 -0.005696771 0.0124603715 -0.17280926 0.23415855 -0.09458687 0.059447523 -0.1329658 0.15101017 0.11059293 -0.07836061 0.058821484 -0.042207442 0.01384717 -0.026343051 -0.07033246 -0.03372062 0.098159626 -0.10592672 -0.004192227 -0.15918854 -0.10647899 -0.1525988 -0.11795882 -0.063627586 0.07990288 -0.11859472 0.029148832 0.016772723 0.24020237
jr 0.16361888 0.07816022 -0.13565524 -0.07530658 0.18207976 -0.007284362 -0.14166546 -0.025061743 0.0906553 -0.14189465 -0.120921694 -0.05608465 0.07532212 -0.09860059 0.34261486 -0.074939966 0.05033382 -0.15015785 -0.008207487 0.26102272 -0.05409997 -0.11996647 0.18137154 0.21055944 -0.06299924 -0.064751744 0.13906279 -0.18107778 0.033798665 0.009595856 0.05240167 -0.113848545 -0.096247084 -0.06716255 0.15784867 -0.2054229 -0.14872316 0.22812876 -0.037785012 -0.03535734 -0.28262088 0.014866372 -0.13528505 0.11651638 0.19423845 -0.021746049 -0.028809633 -0.12577696 -0.15992315 0.29905868
kg 0.081392564 0.16543728 -0.03651748 0.15237464 -0.08814341 -0.32064512 -0.027893746 -0.3703825 0.026860127 0.11852636 0.09116111 -0.15253307 -0.12856655 -0.038283307 -0.18923733 0.020872224 -0.042635825 0.014849751 -0.13587253 -0.15618119 0.026218347 -0.18782564 -0.038407136 -0.09571362 -0.14890477 0.080771714 0.23720458 -0.19576967 0.09053705 0.19121255 -0.076468036 0.13765922 0.0034710444 0.17182903 0.011008766 -0.0031667736 0.10198076 0.019775651 -0.18842673 0.09399526 -0.10361526 0.09958133 0.18153037 -0.13974988 0.17789279 -0.096455015 0.034358505 -0.21211354 -0.2019209 0.14884074
m1 0.081838645 0.010782566 -0.039785113 0.008053262 -0.06668313 -0.14881001 0.0781298 0.10011452 -0.17569694 -0.28929487 -0.06855009 -0.12820925 9.478338E-4 -0.17320876 0.044675082 0.08182176 -0.038760725 -0.10812309 -0.20820376 -0.10892101 -0.1908853 -6.056697E-4 0.06889059 -0.0011905336 -0.028806753 0.007913667 -0.012485665 -0.20650068 0.13015565 0.009433473 -0.07134735 -0.10546354 -0.10411536 0.0544641 0.020858018 -0.031993486 -0.2227786 0.1058549 -0.08065017 0.021411816 -0.2540902 0.16407073 0.24832538 -0.18915237 0.35895053 -0.2552095 -0.29717654 -0.055508874 0.0549642 0.16590272
m2 0.14250143 0.11757187 -0.1616839 0.10154916 -0.06600135 -0.17856607 0.14756161 -0.009121462 -0.15629399 -0.0019809236 0.051172916 -0.14678961 -0.06862053 -0.061875403 -0.018507678 0.0544141 -0.066710174 -0.046665028 -0.38192236 -0.18551071 -0.1329254 -0.11311073 0.09517221 -0.0085249245 -0.08627175 -0.030642489 0.08931142 -0.34450197 0.07890163 -2.0762133E-4 -0.069728434 0.25934103 -0.049085446 0.09638701 0.0679317 -0.10239485 -0.17886147 -0.027874801 -0.08081524 -0.07662034 -0.21155353 0.12927234 0.16395214 -0.10339733 0.21141815 -0.23274031 -0.18933794 -0.18046267 -0.1150714 -0.13950932
m3 0.18609874 0.14810751 -0.009819845 0.04472654 -0.15018056 -0.17059681 0.04062953 0.024276372 0.001729267 -0.16242401 -0.017716307 -0.095377535 -0.042688467 -0.15999421 0.014588107 0.08388042 0.028883284 -0.04048503 -0.25352514 -0.189379 -0.12564081 -0.1426643 0.0036098335 0.012826341 -0.11146011 0.14166844 0.16681169 -0.2674934 0.18057363 0.0651387 -0.058014773 0.13537645 -0.056651138 0.05562294 0.014521679 -0.115208514 -0.15514673 0.065001346 -0.20994104 0.0016193446 -0.1298539 0.103004895 0.3424905 -0.22005868 0.29189274 -0.21253937 -0.14882772 -0.16742231 -0.014467507 0.14665306
km -0.21052076 0.17813647 0.014824701 0.14767216 0.010834191 -0.14016658 0.108730994 -0.1977314 -0.02425038 -0.122989275 0.045291495 0.019518355 -0.084176466 0.123700954 -0.004779802 -0.095382474 -0.15238787 -0.006825843 -0.18514855 0.08403248 -0.08095551 -0.23292875 0.056327164 -0.007014272 -0.19777519 -0.2843956 0.21582645 -0.29688266 -0.12366852 -0.040695142 -0.043203793 0.16410975 -0.060274374 0.17526491 0.10613987 0.08398794 0.01404105 -0.16014723 -0.18259396 0.13267747 -0.119860865 0.12408773 0.010971991 -0.227906 0.28036723 -0.0797216 -0.055978343 -0.20067573 -0.08127862 -0.078864135
m0 0.025484696 0.04754463 0.040041246 0.26183215 -0.19572642 -0.08262116 -0.031708628 -0.12716061 -0.19767588 -0.18686458 -0.02403916 -0.18659045 -0.0916539 0.080137454 0.030172087 0.11672875 -0.13510469 0.2245819 -0.18926324 -0.08708821 -0.22555584 -0.016306793 0.27771273 0.038941868 0.046357717 -0.09735882 0.05829415 -0.09890314 0.16678834 -0.025539331 -0.1668502 0.026865399 0.17662683 0.103945985 0.099786215 -0.00527044 -0.14955007 0.18783315 -0.18328352 -0.24975029 -0.13109873 0.012878854 0.0996211 0.099710345 0.20857939 -0.1099434 -0.17879395 -0.12940387 0.14288248 0.18605286
li -0.0066030803 0.20608109 0.07917565 0.05661417 -0.09892341 -0.09101429 -0.10449558 -0.2650934 -0.041810732 0.06278391 -0.14226203 0.05880668 -0.08755893 -0.11658754 0.0022710315 -0.044082426 0.007897769 0.09306655 0.045746077 0.05384227 0.19671123 -0.07941902 -0.019856269 -0.14961177 -0.18352073 -0.19361016 0.11145665 0.083296224 0.19678158 0.09041629 0.08636248 -0.11251964 -0.08970164 0.3413764 0.2870871 -0.085813634 -0.23123683 0.113534786 -0.03797078 0.101890154 -0.03154211 -0.08207811 -0.120736815 0.34956455 -0.039389398 0.25059998 -0.17676839 0.017737115 -0.15527147 -0.0061716326
la -0.24612094 -0.05479463 0.23219557 0.044020735 0.023953658 0.14770338 -0.16708939 0.014071213 0.023285741 0.055460103 -0.22159694 -0.15555446 0.3055634 -0.24377784 0.0589656 0.101872265 -0.22542417 0.008016112 0.101040624 -0.08764858 0.1342951 0.006905878 0.030543247 -0.07172886 -0.088099435 0.1313925 0.054225687 -0.19914763 0.05046191 0.21279684 -0.21572843 0.040799726 6.640139E-4 0.24005392 -0.076568335 -0.044830915 -0.108856775 -0.04184084 -0.12101512 0.09820858 -0.1956761 -0.19678587 -0.07259702 -0.024838384 0.08989199 0.12147392 -0.083211444 0.12788965 0.011383899 -0.31203207
lb 0.0023123436 0.18513082 -0.09638422 0.09469156 -0.10674186 -0.23102203 -0.010121403 -0.31385857 0.10359878 0.079031914 0.0026655043 -0.13232729 -0.21412602 -0.026085196 -0.10136985 0.03645767 -0.1531998 -0.006664781 -0.2072176 -0.044563957 -0.02365534 -0.18092892 0.03128112 -0.11294559 -0.13311264 0.09399208 0.19442356 -0.25177786 0.18276963 0.3097188 0.09188066 0.13983275 0.0016905132 0.15049684 -0.08612529 -0.05355311 0.098768376 0.071456306 -0.1577363 0.07266347 -0.1618164 0.007232622 0.17200904 -0.17724125 0.063615665 -0.20702837 -0.0027634287 -0.15571035 -0.22843511 0.048736222
ht -0.004481847 -0.038355794 -0.16202217 0.03128353 -0.16849199 -0.06338144 -0.024550218 -0.12153748 -0.056919564 -0.046331942 -0.207574 -0.20975897 -0.09470277 -0.015676923 -0.22301243 -0.045524377 -0.043486107 0.14885534 -0.070188664 0.0022019846 -0.03352843 -0.034608215 0.14235254 -0.026729126 -0.022840355 -0.101755895 0.19500665 -0.23889661 0.3360273 0.092779875 -0.14790115 0.09915267 0.030161634 0.007654654 0.09000464 -0.16901167 0.082874976 0.44385493 -0.05738853 -0.12498271 -0.15219335 -0.14000553 0.21413097 0.08626025 0.16687104 -0.1421793 -0.18670236 -0.04620758 -0.058795337 0.116311565
hk -0.01184763 0.014344198 -0.15520936 -0.0993325 -0.13789551 0.018054169 0.13869232 -0.12933919 -0.08341903 0.089681275 -0.069998905 -0.06877312 -0.16310543 -0.07461994 -0.22060357 -0.123723686 -0.13412662 0.036465332 -0.14438644 -0.21396767 0.06635397 -0.04905099 0.026922572 -0.022878421 0.034550514 -0.0834315 -0.043080483 -0.22440223 0.19765134 0.12611483 -0.34451687 0.006606141 -0.12812932 0.10148592 0.16817775 -0.17864926 -0.09278221 0.25273108 0.08666576 -0.049294427 -0.16027984 -0.0859151 -0.0064888066 0.28290665 0.1348169 0.100801475 0.034793586 0.0014835042 -0.031465955 0.38536847
ic 0.10921234 0.049024083 -0.22635904 0.28416365 -0.1622072 -0.074144885 -0.09773093 0.1337035 -0.12859856 -0.06617203 -0.0728969 -0.21255048 0.00782722 -0.08358954 0.062709555 -0.079479836 -0.05018294 0.09968974 -0.20332807 -0.1446182 -0.044971943 -0.02495181 0.30294296 -0.09101539 -0.14727393 -0.13336992 0.032222573 -0.039396867 0.27652088 0.058005773 -0.15628861 0.085257635 0.124309205 0.1812297 0.028366983 -0.056224085 -0.021848379 0.40739796 -0.018575901 -0.10767933 -0.0031195618 0.04301469 0.12788634 -0.038563248 0.29986185 0.023924934 -0.08676406 -0.087864846 0.10610653 0.08590884
iv 0.016887458 0.0843102 -0.10457545 -0.015174774 0.0038389429 -0.08346126 -0.010974581 4.4071153E-4 0.16101521 -0.13729642 -0.055376522 -0.30731735 0.0285894 -0.19234252 0.094817854 0.122608125 -0.15464014 0.11412951 -0.013773861 -0.006222447 0.120681345 0.057489205 0.07941727 0.102033675 -0.1459904 0.31921467 0.09203375 0.18705013 0.3558451 -0.16304116 0.17221077 0.08139247 -0.120885134 0.3375933 0.10185954 -0.06930904 0.022672366 -0.11487781 -0.14174393 -0.07413656 -0.10548127 0.022412702 0.04859559 0.15932527 0.1043973 0.25424084 0.059007574 -0.1694411 0.107302524 0.025002709
